{"trees": [{"children_left": [1, -1, 3, 4, -1, -1, 7, 8, -1, -1, -1], "children_right": [2, -1, 6, 5, -1, -1, 10, 9, -1, -1, -1], "feature": [3, -2, 3, 2, -2, -2, 3, 2, -2, -2, -2], "threshold": [0.75, -2.0, 1.550000011920929, 4.900000095367432, -2.0, -2.0, 1.6500000357627869, 5.450000047683716, -2.0, -2.0, -2.0], "value": [[[0.3333333333333333, 0.35, 0.31666666666666665]], [[1.0, 0.0, 0.0]], [[0.0, 0.525, 0.475]], [[0.0, 0.9761904761904762, 0.023809523809523808]], [[0.0, 1.0, 0.0]], [[0.0, 0.0, 1.0]], [[0.0, 0.02631578947368421, 0.9736842105263158]], [[0.0, 0.3333333333333333, 0.6666666666666666]], [[0.0, 1.0, 0.0]], [[0.0, 0.0, 1.0]], [[0.0, 0.0, 1.0]]]}, {"children_left": [1, -1, 3, 4, -1, 6, -1, 8, -1, -1, 11, 12, -1, 14, 15, -1, -1, -1, -1], "children_right": [2, -1, 10, 5, -1, 7, -1, 9, -1, -1, 18, 13, -1, 17, 16, -1, -1, -1, -1], "feature": [2, -2, 2, 2, -2, 3, -2, 0, -2, -2, 3, 1, -2, 2, 0, -2, -2, -2, -2], "threshold": [2.449999988079071, -2.0, 4.8500001430511475, 4.75, -2.0, 1.5999999642372131, -2.0, 6.049999952316284, -2.0, -2.0, 1.699999988079071, 2.450000047683716, -2.0, 5.450000047683716, 6.150000095367432, -2.0, -2.0, -2.0, -2.0], "value": [[[0.375, 0.35, 0.275]], [[1.0, 0.0, 0.0]], [[0.0, 0.56, 0.44]], [[0.0, 0.9761904761904762, 0.023809523809523808]], [[0.0, 1.0, 0.0]], [[0.0, 0.75, 0.25]], [[0.0, 1.0, 0.0]], [[0.0, 0.5, 0.5]], [[0.0, 1.0, 0.0]], [[0.0, 0.0, 1.0]], [[0.0, 0.030303030303030304, 0.9696969696969697]], [[0.0, 0.2, 0.8]], [[0.0, 0.0, 1.0]], [[0.0, 0.3333333333333333, 0.6666666666666666]], [[0.0, 0.5, 0.5]], [[0.0, 1.0, 0.0]], [[0.0, 0.0, 1.0]], [[0.0, 0.0, 1.0]], [[0.0, 0.0, 1.0]]]}, {"children_left": [1, -1, 3, 4, 5, -1, -1, -1, -1], "children_right": [2, -1, 8, 7, 6, -1, -1, -1, -1], "feature": [2, -2, 3, 1, 2, -2, -2, -2, -2], "threshold": [2.449999988079071, -2.0, 1.699999988079071, 2.3000000715255737, 4.75, -2.0, -2.0, -2.0, -2.0], "value": [[[0.3416666666666667, 0.35833333333333334, 0.3]], [[1.0, 0.0, 0.0]], [[0.0, 0.5443037974683544, 0.45569620253164556]], [[0.0, 0.9772727272727273, 0.022727272727272728]], [[0.0, 0.75, 0.25]], [[0.0, 1.0, 0.0]], [[0.0, 0.0, 1.0]], [[0.0, 1.0, 0.0]], [[0.0, 0.0, 1.0]]]}, {"children_left": [1, -1, 3, 4, 5, -1, 7, -1, -1, -1, 11, 12, 13, -1, -1, -1, -1], "children_right": [2, -1, 10, 9, 6, -1, 8, -1, -1, -1, 16, 15, 14, -1, -1, -1, -1], "feature": [2, -2, 0, 2, 3, -2, 0, -2, -2, -2, 0, 3, 2, -2, -2, -2, -2], "threshold": [2.449999988079071, -2.0, 6.25, 4.8500001430511475, 1.600000023841858, -2.0, 5.400000095367432, -2.0, -2.0, -2.0, 7.099999904632568, 1.649999976158142, 5.0, -2.0, -2.0, -2.0, -2.0], "value": [[[0.31666666666666665, 0.35833333333333334, 0.325]], [[1.0, 0.0, 0.0]], [[0.0, 0.524390243902439, 0.47560975609756095]], [[0.0, 0.8095238095238095, 0.19047619047619047]], [[0.0, 0.9714285714285714, 0.02857142857142857]], [[0.0, 1.0, 0.0]], [[0.0, 0.5, 0.5]], [[0.0, 0.0, 1.0]], [[0.0, 1.0, 0.0]], [[0.0, 0.0, 1.0]], [[0.0, 0.225, 0.775]], [[0.0, 0.3333333333333333, 0.6666666666666666]], [[0.0, 0.9, 0.1]], [[0.0, 1.0, 0.0]], [[0.0, 0.0, 1.0]], [[0.0, 0.0, 1.0]], [[0.0, 0.0, 1.0]]]}, {"children_left": [1, -1, 3, 4, 5, 6, -1, -1, -1, 10, -1, -1, 13, 14, -1, -1, -1], "children_right": [2, -1, 12, 9, 8, 7, -1, -1, -1, 11, -1, -1, 16, 15, -1, -1, -1], "feature": [3, -2, 2, 2, 1, 0, -2, -2, -2, 0, -2, -2, 3, 0, -2, -2, -2], "threshold": [0.800000011920929, -2.0, 4.950000047683716, 4.8500001430511475, 2.549999952316284, 5.0, -2.0, -2.0, -2.0, 6.6000001430511475, -2.0, -2.0, 1.699999988079071, 6.599999904632568, -2.0, -2.0, -2.0], "value": [[[0.2916666666666667, 0.38333333333333336, 0.325]], [[1.0, 0.0, 0.0]], [[0.0, 0.5411764705882353, 0.4588235294117647]], [[0.0, 0.9574468085106383, 0.0425531914893617]], [[0.0, 0.9772727272727273, 0.022727272727272728]], [[0.0, 0.9230769230769231, 0.07692307692307693]], [[0.0, 0.0, 1.0]], [[0.0, 1.0, 0.0]], [[0.0, 1.0, 0.0]], [[0.0, 0.6666666666666666, 0.3333333333333333]], [[0.0, 0.0, 1.0]], [[0.0, 1.0, 0.0]], [[0.0, 0.02631578947368421, 0.9736842105263158]], [[0.0, 0.3333333333333333, 0.6666666666666666]], [[0.0, 1.0, 0.0]], [[0.0, 0.0, 1.0]], [[0.0, 0.0, 1.0]]]}, {"children_left": [1, -1, 3, 4, -1, -1, 7, -1, 9, 10, -1, -1, -1], "children_right": [2, -1, 6, 5, -1, -1, 8, -1, 12, 11, -1, -1, -1], "feature": [3, -2, 2, 0, -2, -2, 3, -2, 3, 0, -2, -2, -2], "threshold": [0.7000000029802322, -2.0, 4.75, 5.0, -2.0, -2.0, 1.449999988079071, -2.0, 1.649999976158142, 6.6000001430511475, -2.0, -2.0, -2.0], "value": [[[0.35833333333333334, 0.3416666666666667, 0.3]], [[1.0, 0.0, 0.0]], [[0.0, 0.5324675324675324, 0.4675324675324675]], [[0.0, 0.975, 0.025]], [[0.0, 0.0, 1.0]], [[0.0, 1.0, 0.0]], [[0.0, 0.05405405405405406, 0.9459459459459459]], [[0.0, 1.0, 0.0]], [[0.0, 0.027777777777777776, 0.9722222222222222]], [[0.0, 0.3333333333333333, 0.6666666666666666]], [[0.0, 0.0, 1.0]], [[0.0, 1.0, 0.0]], [[0.0, 0.0, 1.0]]]}, {"children_left": [1, 2, -1, 4, -1, -1, 7, 8, 9, -1, 11, -1, -1, -1, 15, 16, -1, -1, -1], "children_right": [6, 3, -1, 5, -1, -1, 14, 13, 10, -1, 12, -1, -1, -1, 18, 17, -1, -1, -1], "feature": [0, 2, -2, 3, -2, -2, 3, 1, 1, -2, 2, -2, -2, -2, 3, 1, -2, -2, -2], "threshold": [5.549999952316284, 2.449999988079071, -2.0, 1.5, -2.0, -2.0, 1.699999988079071, 3.9000000953674316, 2.25, -2.0, 5.0, -2.0, -2.0, -2.0, 1.8499999642372131, 3.149999976158142, -2.0, -2.0, -2.0], "value": [[[0.25833333333333336, 0.3333333333333333, 0.4083333333333333]], [[0.75, 0.175, 0.075]], [[1.0, 0.0, 0.0]], [[0.0, 0.7, 0.3]], [[0.0, 1.0, 0.0]], [[0.0, 0.0, 1.0]], [[0.0125, 0.4125, 0.575]], [[0.02857142857142857, 0.9142857142857143, 0.05714285714285714]], [[0.0, 0.9411764705882353, 0.058823529411764705]], [[0.0, 0.0, 1.0]], [[0.0, 0.9696969696969697, 0.030303030303030304]], [[0.0, 1.0, 0.0]], [[0.0, 0.0, 1.0]], [[1.0, 0.0, 0.0]], [[0.0, 0.022222222222222223, 0.9777777777777777]], [[0.0, 0.1, 0.9]], [[0.0, 0.0, 1.0]], [[0.0, 1.0, 0.0]], [[0.0, 0.0, 1.0]]]}, {"children_left": [1, 2, -1, 4, -1, -1, 7, 8, -1, -1, 11, 12, -1, 14, -1, -1, -1], "children_right": [6, 3, -1, 5, -1, -1, 10, 9, -1, -1, 16, 13, -1, 15, -1, -1, -1], "feature": [0, 3, -2, 0, -2, -2, 2, 2, -2, -2, 3, 1, -2, 0, -2, -2, -2], "threshold": [5.450000047683716, 0.75, -2.0, 4.950000047683716, -2.0, -2.0, 4.75, 2.449999988079071, -2.0, -2.0, 1.699999988079071, 2.350000023841858, -2.0, 7.0, -2.0, -2.0, -2.0], "value": [[[0.30833333333333335, 0.38333333333333336, 0.30833333333333335]], [[0.8571428571428571, 0.11904761904761904, 0.023809523809523808]], [[1.0, 0.0, 0.0]], [[0.0, 0.8333333333333334, 0.16666666666666666]], [[0.0, 0.0, 1.0]], [[0.0, 1.0, 0.0]], [[0.01282051282051282, 0.5256410256410257, 0.46153846153846156]], [[0.029411764705882353, 0.9705882352941176, 0.0]], [[1.0, 0.0, 0.0]], [[0.0, 1.0, 0.0]], [[0.0, 0.18181818181818182, 0.8181818181818182]], [[0.0, 0.7272727272727273, 0.2727272727272727]], [[0.0, 0.0, 1.0]], [[0.0, 0.8888888888888888, 0.1111111111111111]], [[0.0, 1.0, 0.0]], [[0.0, 0.0, 1.0]], [[0.0, 0.0, 1.0]]]}, {"children_left": [1, 2, -1, 4, -1, -1, 7, 8, 9, -1, -1, 12, -1, 14, -1, -1, -1], "children_right": [6, 3, -1, 5, -1, -1, 16, 11, 10, -1, -1, 13, -1, 15, -1, -1, -1], "feature": [0, 2, -2, 3, -2, -2, 2, 3, 2, -2, -2, 0, -2, 0, -2, -2, -2], "threshold": [5.450000047683716, 2.449999988079071, -2.0, 1.4000000357627869, -2.0, -2.0, 5.0, 1.699999988079071, 2.4999999403953552, -2.0, -2.0, 5.75, -2.0, 6.049999952316284, -2.0, -2.0, -2.0], "value": [[[0.31666666666666665, 0.375, 0.30833333333333335]], [[0.8571428571428571, 0.09523809523809523, 0.047619047619047616]], [[1.0, 0.0, 0.0]], [[0.0, 0.6666666666666666, 0.3333333333333333]], [[0.0, 1.0, 0.0]], [[0.0, 0.0, 1.0]], [[0.02564102564102564, 0.5256410256410257, 0.44871794871794873]], [[0.0425531914893617, 0.8723404255319149, 0.0851063829787234]], [[0.05, 0.95, 0.0]], [[1.0, 0.0, 0.0]], [[0.0, 1.0, 0.0]], [[0.0, 0.42857142857142855, 0.5714285714285714]], [[0.0, 0.0, 1.0]], [[0.0, 0.6, 0.4]], [[0.0, 1.0, 0.0]], [[0.0, 0.0, 1.0]], [[0.0, 0.0, 1.0]]]}, {"children_left": [1, -1, 3, 4, -1, 6, -1, 8, -1, -1, -1], "children_right": [2, -1, 10, 5, -1, 7, -1, 9, -1, -1, -1], "feature": [3, -2, 3, 2, -2, 2, -2, 3, -2, -2, -2], "threshold": [0.800000011920929, -2.0, 1.699999988079071, 4.900000095367432, -2.0, 5.049999952316284, -2.0, 1.550000011920929, -2.0, -2.0, -2.0], "value": [[[0.36666666666666664, 0.3333333333333333, 0.3]], [[1.0, 0.0, 0.0]], [[0.0, 0.5263157894736842, 0.47368421052631576]], [[0.0, 0.9523809523809523, 0.047619047619047616]], [[0.0, 1.0, 0.0]], [[0.0, 0.3333333333333333, 0.6666666666666666]], [[0.0, 0.0, 1.0]], [[0.0, 0.5, 0.5]], [[0.0, 0.0, 1.0]], [[0.0, 1.0, 0.0]], [[0.0, 0.0, 1.0]]]}, {"children_left": [1, -1, 3, 4, -1, 6, -1, 8, -1, -1, 11, 12, -1, -1, -1], "children_right": [2, -1, 10, 5, -1, 7, -1, 9, -1, -1, 14, 13, -1, -1, -1], "feature": [2, -2, 3, 3, -2, 2, -2, 1, -2, -2, 2, 1, -2, -2, -2], "threshold": [2.449999988079071, -2.0, 1.6500000357627869, 1.449999988079071, -2.0, 4.8999998569488525, -2.0, 2.75, -2.0, -2.0, 4.8500001430511475, 3.0, -2.0, -2.0, -2.0], "value": [[[0.35, 0.3333333333333333, 0.31666666666666665]], [[1.0, 0.0, 0.0]], [[0.0, 0.5128205128205128, 0.48717948717948717]], [[0.0, 0.9512195121951219, 0.04878048780487805]], [[0.0, 1.0, 0.0]], [[0.0, 0.7142857142857143, 0.2857142857142857]], [[0.0, 1.0, 0.0]], [[0.0, 0.3333333333333333, 0.6666666666666666]], [[0.0, 1.0, 0.0]], [[0.0, 0.0, 1.0]], [[0.0, 0.02702702702702703, 0.972972972972973]], [[0.0, 0.2, 0.8]], [[0.0, 0.0, 1.0]], [[0.0, 1.0, 0.0]], [[0.0, 0.0, 1.0]]]}, {"children_left": [1, -1, 3, 4, -1, 6, 7, -1, -1, -1, -1], "children_right": [2, -1, 10, 5, -1, 9, 8, -1, -1, -1, -1], "feature": [3, -2, 3, 3, -2, 0, 2, -2, -2, -2, -2], "threshold": [0.75, -2.0, 1.6500000357627869, 1.449999988079071, -2.0, 6.099999904632568, 5.049999952316284, -2.0, -2.0, -2.0, -2.0], "value": [[[0.35833333333333334, 0.31666666666666665, 0.325]], [[1.0, 0.0, 0.0]], [[0.0, 0.4935064935064935, 0.5064935064935064]], [[0.0, 0.95, 0.05]], [[0.0, 1.0, 0.0]], [[0.0, 0.7142857142857143, 0.2857142857142857]], [[0.0, 0.5, 0.5]], [[0.0, 0.0, 1.0]], [[0.0, 1.0, 0.0]], [[0.0, 1.0, 0.0]], [[0.0, 0.0, 1.0]]]}, {"children_left": [1, -1, 3, 4, -1, -1, -1], "children_right": [2, -1, 6, 5, -1, -1, -1], "feature": [2, -2, 2, 0, -2, -2, -2], "threshold": [2.699999988079071, -2.0, 4.8500001430511475, 4.950000047683716, -2.0, -2.0, -2.0], "value": [[[0.35833333333333334, 0.25833333333333336, 0.38333333333333336]], [[1.0, 0.0, 0.0]], [[0.0, 0.4025974025974026, 0.5974025974025974]], [[0.0, 0.96875, 0.03125]], [[0.0, 0.0, 1.0]], [[0.0, 1.0, 0.0]], [[0.0, 0.0, 1.0]]]}, {"children_left": [1, 2, 3, -1, -1, 6, -1, 8, -1, 10, -1, 12, -1, -1, -1], "children_right": [14, 5, 4, -1, -1, 7, -1, 9, -1, 11, -1, 13, -1, -1, -1], "feature": [3, 0, 2, -2, -2, 3, -2, 2, -2, 2, -2, 3, -2, -2, -2], "threshold": [1.6500000357627869, 5.450000047683716, 2.699999988079071, -2.0, -2.0, 1.449999988079071, -2.0, 4.799999952316284, -2.0, 5.049999952316284, -2.0, 1.550000011920929, -2.0, -2.0, -2.0], "value": [[[0.25, 0.30833333333333335, 0.44166666666666665]], [[0.43478260869565216, 0.5362318840579711, 0.028985507246376812]], [[0.8823529411764706, 0.11764705882352941, 0.0]], [[1.0, 0.0, 0.0]], [[0.0, 1.0, 0.0]], [[0.0, 0.9428571428571428, 0.05714285714285714]], [[0.0, 1.0, 0.0]], [[0.0, 0.7142857142857143, 0.2857142857142857]], [[0.0, 1.0, 0.0]], [[0.0, 0.3333333333333333, 0.6666666666666666]], [[0.0, 0.0, 1.0]], [[0.0, 0.5, 0.5]], [[0.0, 0.0, 1.0]], [[0.0, 1.0, 0.0]], [[0.0, 0.0, 1.0]]]}, {"children_left": [1, -1, 3, 4, -1, 6, -1, -1, 9, -1, -1], "children_right": [2, -1, 8, 5, -1, 7, -1, -1, 10, -1, -1], "feature": [3, -2, 0, 3, -2, 1, -2, -2, 3, -2, -2], "threshold": [0.75, -2.0, 6.1499998569488525, 1.699999988079071, -2.0, 3.100000023841858, -2.0, -2.0, 1.550000011920929, -2.0, -2.0], "value": [[[0.4083333333333333, 0.24166666666666667, 0.35]], [[1.0, 0.0, 0.0]], [[0.0, 0.4084507042253521, 0.5915492957746479]], [[0.0, 0.75, 0.25]], [[0.0, 1.0, 0.0]], [[0.0, 0.125, 0.875]], [[0.0, 0.0, 1.0]], [[0.0, 1.0, 0.0]], [[0.0, 0.18604651162790697, 0.813953488372093]], [[0.0, 1.0, 0.0]], [[0.0, 0.0, 1.0]]]}, {"children_left": [1, 2, -1, 4, -1, -1, 7, -1, 9, 10, -1, -1, -1], "children_right": [6, 3, -1, 5, -1, -1, 8, -1, 12, 11, -1, -1, -1], "feature": [2, 3, -2, 0, -2, -2, 3, -2, 2, 0, -2, -2, -2], "threshold": [4.75, 0.75, -2.0, 4.950000047683716, -2.0, -2.0, 1.449999988079071, -2.0, 4.8500001430511475, 6.049999952316284, -2.0, -2.0, -2.0], "value": [[[0.275, 0.3, 0.425]], [[0.4852941176470588, 0.5, 0.014705882352941176]], [[1.0, 0.0, 0.0]], [[0.0, 0.9714285714285714, 0.02857142857142857]], [[0.0, 0.0, 1.0]], [[0.0, 1.0, 0.0]], [[0.0, 0.038461538461538464, 0.9615384615384616]], [[0.0, 1.0, 0.0]], [[0.0, 0.0196078431372549, 0.9803921568627451]], [[0.0, 0.25, 0.75]], [[0.0, 1.0, 0.0]], [[0.0, 0.0, 1.0]], [[0.0, 0.0, 1.0]]]}, {"children_left": [1, 2, -1, 4, -1, -1, 7, 8, 9, 10, -1, -1, 13, -1, 15, -1, -1, 18, -1, -1, -1], "children_right": [6, 3, -1, 5, -1, -1, 20, 17, 12, 11, -1, -1, 14, -1, 16, -1, -1, 19, -1, -1, -1], "feature": [0, 3, -2, 0, -2, -2, 0, 3, 2, 1, -2, -2, 2, -2, 0, -2, -2, 2, -2, -2, -2], "threshold": [5.450000047683716, 0.8999999910593033, -2.0, 5.049999952316284, -2.0, -2.0, 7.049999952316284, 1.699999988079071, 4.950000047683716, 3.450000047683716, -2.0, -2.0, 5.049999952316284, -2.0, 6.150000095367432, -2.0, -2.0, 4.8500001430511475, -2.0, -2.0, -2.0], "value": [[[0.2916666666666667, 0.35833333333333334, 0.35]], [[0.8888888888888888, 0.05555555555555555, 0.05555555555555555]], [[1.0, 0.0, 0.0]], [[0.0, 0.5, 0.5]], [[0.0, 0.0, 1.0]], [[0.0, 1.0, 0.0]], [[0.03571428571428571, 0.4880952380952381, 0.47619047619047616]], [[0.0410958904109589, 0.5616438356164384, 0.3972602739726027]], [[0.06382978723404255, 0.8297872340425532, 0.10638297872340426]], [[0.07317073170731707, 0.926829268292683, 0.0]], [[0.0, 1.0, 0.0]], [[1.0, 0.0, 0.0]], [[0.0, 0.16666666666666666, 0.8333333333333334]], [[0.0, 0.0, 1.0]], [[0.0, 0.3333333333333333, 0.6666666666666666]], [[0.0, 1.0, 0.0]], [[0.0, 0.0, 1.0]], [[0.0, 0.07692307692307693, 0.9230769230769231]], [[0.0, 1.0, 0.0]], [[0.0, 0.0, 1.0]], [[0.0, 0.0, 1.0]]]}, {"children_left": [1, -1, 3, 4, -1, 6, 7, -1, -1, -1, -1], "children_right": [2, -1, 10, 5, -1, 9, 8, -1, -1, -1, -1], "feature": [2, -2, 2, 3, -2, 0, 2, -2, -2, -2, -2], "threshold": [2.350000023841858, -2.0, 4.950000047683716, 1.6500000357627869, -2.0, 6.049999952316284, 4.650000095367432, -2.0, -2.0, -2.0, -2.0], "value": [[[0.30833333333333335, 0.38333333333333336, 0.30833333333333335]], [[1.0, 0.0, 0.0]], [[0.0, 0.5542168674698795, 0.4457831325301205]], [[0.0, 0.9387755102040817, 0.061224489795918366]], [[0.0, 1.0, 0.0]], [[0.0, 0.4, 0.6]], [[0.0, 0.6666666666666666, 0.3333333333333333]], [[0.0, 0.0, 1.0]], [[0.0, 1.0, 0.0]], [[0.0, 0.0, 1.0]], [[0.0, 0.0, 1.0]]]}, {"children_left": [1, -1, 3, 4, 5, -1, -1, 8, 9, -1, -1, -1, 13, 14, -1, -1, -1], "children_right": [2, -1, 12, 7, 6, -1, -1, 11, 10, -1, -1, -1, 16, 15, -1, -1, -1], "feature": [2, -2, 2, 2, 3, -2, -2, 0, 1, -2, -2, -2, 3, 1, -2, -2, -2], "threshold": [2.449999988079071, -2.0, 4.950000047683716, 4.700000047683716, 1.6500000357627869, -2.0, -2.0, 6.25, 3.0, -2.0, -2.0, -2.0, 1.699999988079071, 2.450000047683716, -2.0, -2.0, -2.0], "value": [[[0.35, 0.4, 0.25]], [[1.0, 0.0, 0.0]], [[0.0, 0.6153846153846154, 0.38461538461538464]], [[0.0, 0.9375, 0.0625]], [[0.0, 0.9767441860465116, 0.023255813953488372]], [[0.0, 1.0, 0.0]], [[0.0, 0.0, 1.0]], [[0.0, 0.6, 0.4]], [[0.0, 0.3333333333333333, 0.6666666666666666]], [[0.0, 0.0, 1.0]], [[0.0, 1.0, 0.0]], [[0.0, 1.0, 0.0]], [[0.0, 0.1, 0.9]], [[0.0, 0.75, 0.25]], [[0.0, 0.0, 1.0]], [[0.0, 1.0, 0.0]], [[0.0, 0.0, 1.0]]]}, {"children_left": [1, -1, 3, 4, 5, -1, -1, -1, 9, 10, 11, 12, -1, -1, -1, -1, -1], "children_right": [2, -1, 8, 7, 6, -1, -1, -1, 16, 15, 14, 13, -1, -1, -1, -1, -1], "feature": [2, -2, 3, 1, 2, -2, -2, -2, 3, 2, 1, 2, -2, -2, -2, -2, -2], "threshold": [2.449999988079071, -2.0, 1.550000011920929, 2.25, 4.75, -2.0, -2.0, -2.0, 1.8499999642372131, 5.450000047683716, 3.0, 5.0, -2.0, -2.0, -2.0, -2.0, -2.0], "value": [[[0.375, 0.325, 0.3]], [[1.0, 0.0, 0.0]], [[0.0, 0.52, 0.48]], [[0.0, 0.9487179487179487, 0.05128205128205128]], [[0.0, 0.6, 0.4]], [[0.0, 1.0, 0.0]], [[0.0, 0.0, 1.0]], [[0.0, 1.0, 0.0]], [[0.0, 0.05555555555555555, 0.9444444444444444]], [[0.0, 0.2222222222222222, 0.7777777777777778]], [[0.0, 0.3333333333333333, 0.6666666666666666]], [[0.0, 0.2, 0.8]], [[0.0, 0.0, 1.0]], [[0.0, 1.0, 0.0]], [[0.0, 1.0, 0.0]], [[0.0, 0.0, 1.0]], [[0.0, 0.0, 1.0]]]}, {"children_left": [1, -1, 3, 4, -1, 6, -1, 8, -1, -1, 11, 12, -1, -1, 15, 16, -1, -1, 19, 20, -1, -1, -1], "children_right": [2, -1, 10, 5, -1, 7, -1, 9, -1, -1, 14, 13, -1, -1, 18, 17, -1, -1, 22, 21, -1, -1, -1], "feature": [3, -2, 2, 2, -2, 3, -2, 0, -2, -2, 1, 2, -2, -2, 0, 3, -2, -2, 3, 2, -2, -2, -2], "threshold": [0.75, -2.0, 4.8500001430511475, 4.75, -2.0, 1.5999999642372131, -2.0, 6.049999952316284, -2.0, -2.0, 2.549999952316284, 5.3500001430511475, -2.0, -2.0, 6.099999904632568, 1.699999988079071, -2.0, -2.0, 1.550000011920929, 5.0, -2.0, -2.0, -2.0], "value": [[[0.275, 0.38333333333333336, 0.3416666666666667]], [[1.0, 0.0, 0.0]], [[0.0, 0.5287356321839081, 0.47126436781609193]], [[0.0, 0.9772727272727273, 0.022727272727272728]], [[0.0, 1.0, 0.0]], [[0.0, 0.6666666666666666, 0.3333333333333333]], [[0.0, 1.0, 0.0]], [[0.0, 0.5, 0.5]], [[0.0, 1.0, 0.0]], [[0.0, 0.0, 1.0]], [[0.0, 0.06976744186046512, 0.9302325581395349]], [[0.0, 0.5, 0.5]], [[0.0, 1.0, 0.0]], [[0.0, 0.0, 1.0]], [[0.0, 0.04878048780487805, 0.9512195121951219]], [[0.0, 0.14285714285714285, 0.8571428571428571]], [[0.0, 1.0, 0.0]], [[0.0, 0.0, 1.0]], [[0.0, 0.029411764705882353, 0.9705882352941176]], [[0.0, 0.5, 0.5]], [[0.0, 1.0, 0.0]], [[0.0, 0.0, 1.0]], [[0.0, 0.0, 1.0]]]}, {"children_left": [1, -1, 3, 4, -1, 6, -1, -1, -1], "children_right": [2, -1, 8, 5, -1, 7, -1, -1, -1], "feature": [3, -2, 3, 2, -2, 3, -2, -2, -2], "threshold": [0.75, -2.0, 1.699999988079071, 4.950000047683716, -2.0, 1.550000011920929, -2.0, -2.0, -2.0], "value": [[[0.375, 0.3333333333333333, 0.2916666666666667]], [[1.0, 0.0, 0.0]], [[0.0, 0.5333333333333333, 0.4666666666666667]], [[0.0, 0.9302325581395349, 0.06976744186046512]], [[0.0, 1.0, 0.0]], [[0.0, 0.25, 0.75]], [[0.0, 0.0, 1.0]], [[0.0, 1.0, 0.0]], [[0.0, 0.0, 1.0]]]}, {"children_left": [1, 2, -1, 4, -1, 6, -1, 8, -1, 10, -1, -1, -1], "children_right": [12, 3, -1, 5, -1, 7, -1, 9, -1, 11, -1, -1, -1], "feature": [2, 2, -2, 0, -2, 2, -2, 3, -2, 1, -2, -2, -2], "threshold": [4.8500001430511475, 2.350000023841858, -2.0, 4.950000047683716, -2.0, 4.75, -2.0, 1.5999999642372131, -2.0, 3.0, -2.0, -2.0, -2.0], "value": [[[0.24166666666666667, 0.3416666666666667, 0.4166666666666667]], [[0.3972602739726027, 0.5616438356164384, 0.0410958904109589]], [[1.0, 0.0, 0.0]], [[0.0, 0.9318181818181818, 0.06818181818181818]], [[0.0, 0.0, 1.0]], [[0.0, 0.9534883720930233, 0.046511627906976744]], [[0.0, 1.0, 0.0]], [[0.0, 0.5, 0.5]], [[0.0, 1.0, 0.0]], [[0.0, 0.3333333333333333, 0.6666666666666666]], [[0.0, 0.0, 1.0]], [[0.0, 1.0, 0.0]], [[0.0, 0.0, 1.0]]]}, {"children_left": [1, -1, 3, -1, 5, 6, 7, -1, -1, -1, -1], "children_right": [2, -1, 4, -1, 10, 9, 8, -1, -1, -1, -1], "feature": [3, -2, 2, -2, 3, 2, 1, -2, -2, -2, -2], "threshold": [0.800000011920929, -2.0, 4.950000047683716, -2.0, 1.699999988079071, 5.450000047683716, 2.75, -2.0, -2.0, -2.0, -2.0], "value": [[[0.325, 0.3416666666666667, 0.3333333333333333]], [[1.0, 0.0, 0.0]], [[0.0, 0.5061728395061729, 0.49382716049382713]], [[0.0, 1.0, 0.0]], [[0.0, 0.024390243902439025, 0.975609756097561]], [[0.0, 0.3333333333333333, 0.6666666666666666]], [[0.0, 0.5, 0.5]], [[0.0, 1.0, 0.0]], [[0.0, 0.0, 1.0]], [[0.0, 0.0, 1.0]], [[0.0, 0.0, 1.0]]]}, {"children_left": [1, -1, 3, 4, -1, -1, 7, 8, -1, -1, -1], "children_right": [2, -1, 6, 5, -1, -1, 10, 9, -1, -1, -1], "feature": [3, -2, 3, 2, -2, -2, 0, 0, -2, -2, -2], "threshold": [0.800000011920929, -2.0, 1.699999988079071, 4.950000047683716, -2.0, -2.0, 6.049999952316284, 5.8500001430511475, -2.0, -2.0, -2.0], "value": [[[0.30833333333333335, 0.3333333333333333, 0.35833333333333334]], [[1.0, 0.0, 0.0]], [[0.0, 0.4819277108433735, 0.5180722891566265]], [[0.0, 0.9047619047619048, 0.09523809523809523]], [[0.0, 1.0, 0.0]], [[0.0, 0.0, 1.0]], [[0.0, 0.04878048780487805, 0.9512195121951219]], [[0.0, 0.3333333333333333, 0.6666666666666666]], [[0.0, 0.0, 1.0]], [[0.0, 1.0, 0.0]], [[0.0, 0.0, 1.0]]]}, {"children_left": [1, 2, -1, 4, -1, -1, 7, 8, 9, 10, -1, -1, 13, -1, -1, -1, 17, 18, -1, -1, -1], "children_right": [6, 3, -1, 5, -1, -1, 16, 15, 12, 11, -1, -1, 14, -1, -1, -1, 20, 19, -1, -1, -1], "feature": [0, 2, -2, 0, -2, -2, 2, 1, 0, 2, -2, -2, 3, -2, -2, -2, 3, 0, -2, -2, -2], "threshold": [5.549999952316284, 2.449999988079071, -2.0, 5.0, -2.0, -2.0, 4.950000047683716, 3.9000000953674316, 5.6499998569488525, 4.25, -2.0, -2.0, 1.699999988079071, -2.0, -2.0, -2.0, 1.699999988079071, 6.150000095367432, -2.0, -2.0, -2.0], "value": [[[0.38333333333333336, 0.3416666666666667, 0.275]], [[0.8301886792452831, 0.1509433962264151, 0.018867924528301886]], [[1.0, 0.0, 0.0]], [[0.0, 0.8888888888888888, 0.1111111111111111]], [[0.0, 0.0, 1.0]], [[0.0, 1.0, 0.0]], [[0.029850746268656716, 0.4925373134328358, 0.47761194029850745]], [[0.05714285714285714, 0.8857142857142857, 0.05714285714285714]], [[0.0, 0.9393939393939394, 0.06060606060606061]], [[0.0, 0.5, 0.5]], [[0.0, 1.0, 0.0]], [[0.0, 0.0, 1.0]], [[0.0, 0.967741935483871, 0.03225806451612903]], [[0.0, 1.0, 0.0]], [[0.0, 0.0, 1.0]], [[1.0, 0.0, 0.0]], [[0.0, 0.0625, 0.9375]], [[0.0, 0.3333333333333333, 0.6666666666666666]], [[0.0, 1.0, 0.0]], [[0.0, 0.0, 1.0]], [[0.0, 0.0, 1.0]]]}, {"children_left": [1, -1, 3, -1, 5, 6, 7, -1, 9, -1, -1, -1, -1], "children_right": [2, -1, 4, -1, 12, 11, 8, -1, 10, -1, -1, -1, -1], "feature": [3, -2, 2, -2, 2, 3, 0, -2, 3, -2, -2, -2, -2], "threshold": [0.800000011920929, -2.0, 4.75, -2.0, 5.200000047683716, 1.699999988079071, 6.150000095367432, -2.0, 1.449999988079071, -2.0, -2.0, -2.0, -2.0], "value": [[[0.35, 0.275, 0.375]], [[1.0, 0.0, 0.0]], [[0.0, 0.4230769230769231, 0.5769230769230769]], [[0.0, 1.0, 0.0]], [[0.0, 0.0625, 0.9375]], [[0.0, 0.2, 0.8]], [[0.0, 0.75, 0.25]], [[0.0, 1.0, 0.0]], [[0.0, 0.5, 0.5]], [[0.0, 1.0, 0.0]], [[0.0, 0.0, 1.0]], [[0.0, 0.0, 1.0]], [[0.0, 0.0, 1.0]]]}, {"children_left": [1, -1, 3, 4, 5, -1, 7, -1, -1, -1, 11, -1, -1], "children_right": [2, -1, 10, 9, 6, -1, 8, -1, -1, -1, 12, -1, -1], "feature": [2, -2, 0, 3, 2, -2, 1, -2, -2, -2, 3, -2, -2], "threshold": [2.699999988079071, -2.0, 6.1499998569488525, 1.6500000357627869, 4.849999904632568, -2.0, 2.450000047683716, -2.0, -2.0, -2.0, 1.550000011920929, -2.0, -2.0], "value": [[[0.30833333333333335, 0.3416666666666667, 0.35]], [[1.0, 0.0, 0.0]], [[0.0, 0.4939759036144578, 0.5060240963855421]], [[0.0, 0.7941176470588235, 0.20588235294117646]], [[0.0, 0.9642857142857143, 0.03571428571428571]], [[0.0, 1.0, 0.0]], [[0.0, 0.6666666666666666, 0.3333333333333333]], [[0.0, 0.0, 1.0]], [[0.0, 1.0, 0.0]], [[0.0, 0.0, 1.0]], [[0.0, 0.2857142857142857, 0.7142857142857143]], [[0.0, 1.0, 0.0]], [[0.0, 0.0, 1.0]]]}, {"children_left": [1, -1, 3, 4, -1, -1, -1], "children_right": [2, -1, 6, 5, -1, -1, -1], "feature": [3, -2, 3, 0, -2, -2, -2], "threshold": [0.75, -2.0, 1.6500000357627869, 7.099999904632568, -2.0, -2.0, -2.0], "value": [[[0.30833333333333335, 0.35, 0.3416666666666667]], [[1.0, 0.0, 0.0]], [[0.0, 0.5060240963855421, 0.4939759036144578]], [[0.0, 0.9545454545454546, 0.045454545454545456]], [[0.0, 1.0, 0.0]], [[0.0, 0.0, 1.0]], [[0.0, 0.0, 1.0]]]}, {"children_left": [1, -1, 3, 4, -1, -1, 7, 8, -1, -1, -1], "children_right": [2, -1, 6, 5, -1, -1, 10, 9, -1, -1, -1], "feature": [2, -2, 2, 0, -2, -2, 1, 2, -2, -2, -2], "threshold": [2.699999988079071, -2.0, 4.8500001430511475, 4.950000047683716, -2.0, -2.0, 2.549999952316284, 4.950000047683716, -2.0, -2.0, -2.0], "value": [[[0.31666666666666665, 0.3, 0.38333333333333336]], [[1.0, 0.0, 0.0]], [[0.0, 0.43902439024390244, 0.5609756097560976]], [[0.0, 0.9444444444444444, 0.05555555555555555]], [[0.0, 0.0, 1.0]], [[0.0, 1.0, 0.0]], [[0.0, 0.043478260869565216, 0.9565217391304348]], [[0.0, 0.6666666666666666, 0.3333333333333333]], [[0.0, 1.0, 0.0]], [[0.0, 0.0, 1.0]], [[0.0, 0.0, 1.0]]]}, {"children_left": [1, -1, 3, 4, -1, -1, 7, 8, 9, -1, 11, -1, -1, -1, -1], "children_right": [2, -1, 6, 5, -1, -1, 14, 13, 10, -1, 12, -1, -1, -1, -1], "feature": [3, -2, 2, 3, -2, -2, 2, 3, 2, -2, 3, -2, -2, -2, -2], "threshold": [0.800000011920929, -2.0, 4.75, 1.6500000357627869, -2.0, -2.0, 5.1499998569488525, 1.699999988079071, 4.950000047683716, -2.0, 1.550000011920929, -2.0, -2.0, -2.0, -2.0], "value": [[[0.38333333333333336, 0.30833333333333335, 0.30833333333333335]], [[1.0, 0.0, 0.0]], [[0.0, 0.5, 0.5]], [[0.0, 0.9459459459459459, 0.05405405405405406]], [[0.0, 1.0, 0.0]], [[0.0, 0.0, 1.0]], [[0.0, 0.05405405405405406, 0.9459459459459459]], [[0.0, 0.15384615384615385, 0.8461538461538461]], [[0.0, 0.4, 0.6]], [[0.0, 1.0, 0.0]], [[0.0, 0.25, 0.75]], [[0.0, 0.0, 1.0]], [[0.0, 1.0, 0.0]], [[0.0, 0.0, 1.0]], [[0.0, 0.0, 1.0]]]}, {"children_left": [1, 2, -1, 4, -1, -1, 7, 8, 9, -1, -1, -1, -1], "children_right": [6, 3, -1, 5, -1, -1, 12, 11, 10, -1, -1, -1, -1], "feature": [3, 3, -2, 2, -2, -2, 3, 2, 2, -2, -2, -2, -2], "threshold": [1.600000023841858, 0.800000011920929, -2.0, 4.950000047683716, -2.0, -2.0, 1.8499999642372131, 4.8500001430511475, 4.650000095367432, -2.0, -2.0, -2.0, -2.0], "value": [[[0.2916666666666667, 0.3, 0.4083333333333333]], [[0.4861111111111111, 0.4861111111111111, 0.027777777777777776]], [[1.0, 0.0, 0.0]], [[0.0, 0.9459459459459459, 0.05405405405405406]], [[0.0, 1.0, 0.0]], [[0.0, 0.0, 1.0]], [[0.0, 0.020833333333333332, 0.9791666666666666]], [[0.0, 0.125, 0.875]], [[0.0, 0.3333333333333333, 0.6666666666666666]], [[0.0, 0.0, 1.0]], [[0.0, 1.0, 0.0]], [[0.0, 0.0, 1.0]], [[0.0, 0.0, 1.0]]]}, {"children_left": [1, -1, 3, -1, 5, 6, -1, -1, -1], "children_right": [2, -1, 4, -1, 8, 7, -1, -1, -1], "feature": [3, -2, 2, -2, 2, 1, -2, -2, -2], "threshold": [0.800000011920929, -2.0, 4.8500001430511475, -2.0, 4.950000047683716, 2.9499999284744263, -2.0, -2.0, -2.0], "value": [[[0.39166666666666666, 0.3333333333333333, 0.275]], [[1.0, 0.0, 0.0]], [[0.0, 0.547945205479452, 0.4520547945205479]], [[0.0, 1.0, 0.0]], [[0.0, 0.029411764705882353, 0.9705882352941176]], [[0.0, 0.5, 0.5]], [[0.0, 0.0, 1.0]], [[0.0, 1.0, 0.0]], [[0.0, 0.0, 1.0]]]}, {"children_left": [1, 2, -1, -1, 5, 6, 7, -1, 9, -1, -1, -1, 13, 14, -1, -1, -1], "children_right": [4, 3, -1, -1, 12, 11, 8, -1, 10, -1, -1, -1, 16, 15, -1, -1, -1], "feature": [0, 2, -2, -2, 3, 1, 2, -2, 1, -2, -2, -2, 3, 2, -2, -2, -2], "threshold": [5.450000047683716, 3.199999988079071, -2.0, -2.0, 1.699999988079071, 3.299999952316284, 5.0, -2.0, 2.75, -2.0, -2.0, -2.0, 1.8499999642372131, 4.8500001430511475, -2.0, -2.0, -2.0], "value": [[[0.26666666666666666, 0.35, 0.38333333333333336]], [[0.9666666666666667, 0.0, 0.03333333333333333]], [[1.0, 0.0, 0.0]], [[0.0, 0.0, 1.0]], [[0.03333333333333333, 0.4666666666666667, 0.5]], [[0.06521739130434782, 0.8913043478260869, 0.043478260869565216]], [[0.0, 0.9534883720930233, 0.046511627906976744]], [[0.0, 1.0, 0.0]], [[0.0, 0.3333333333333333, 0.6666666666666666]], [[0.0, 1.0, 0.0]], [[0.0, 0.0, 1.0]], [[1.0, 0.0, 0.0]], [[0.0, 0.022727272727272728, 0.9772727272727273]], [[0.0, 0.125, 0.875]], [[0.0, 1.0, 0.0]], [[0.0, 0.0, 1.0]], [[0.0, 0.0, 1.0]]]}, {"children_left": [1, -1, 3, -1, 5, 6, -1, -1, -1], "children_right": [2, -1, 4, -1, 8, 7, -1, -1, -1], "feature": [2, -2, 3, -2, 2, 1, -2, -2, -2], "threshold": [2.649999976158142, -2.0, 1.6500000357627869, -2.0, 4.8500001430511475, 3.0, -2.0, -2.0, -2.0], "value": [[[0.375, 0.31666666666666665, 0.30833333333333335]], [[1.0, 0.0, 0.0]], [[0.0, 0.5066666666666667, 0.49333333333333335]], [[0.0, 1.0, 0.0]], [[0.0, 0.02631578947368421, 0.9736842105263158]], [[0.0, 0.3333333333333333, 0.6666666666666666]], [[0.0, 0.0, 1.0]], [[0.0, 1.0, 0.0]], [[0.0, 0.0, 1.0]]]}, {"children_left": [1, -1, 3, 4, -1, -1, 7, 8, -1, 10, -1, -1, -1], "children_right": [2, -1, 6, 5, -1, -1, 12, 9, -1, 11, -1, -1, -1], "feature": [2, -2, 2, 3, -2, -2, 1, 1, -2, 3, -2, -2, -2], "threshold": [2.449999988079071, -2.0, 4.950000047683716, 1.699999988079071, -2.0, -2.0, 2.75, 2.600000023841858, -2.0, 1.75, -2.0, -2.0, -2.0], "value": [[[0.26666666666666666, 0.4083333333333333, 0.325]], [[1.0, 0.0, 0.0]], [[0.0, 0.5568181818181818, 0.4431818181818182]], [[0.0, 0.9230769230769231, 0.07692307692307693]], [[0.0, 1.0, 0.0]], [[0.0, 0.0, 1.0]], [[0.0, 0.027777777777777776, 0.9722222222222222]], [[0.0, 0.14285714285714285, 0.8571428571428571]], [[0.0, 0.0, 1.0]], [[0.0, 0.5, 0.5]], [[0.0, 1.0, 0.0]], [[0.0, 0.0, 1.0]], [[0.0, 0.0, 1.0]]]}, {"children_left": [1, 2, -1, 4, -1, 6, -1, -1, 9, 10, -1, -1, -1], "children_right": [8, 3, -1, 5, -1, 7, -1, -1, 12, 11, -1, -1, -1], "feature": [2, 2, -2, 0, -2, 3, -2, -2, 1, 2, -2, -2, -2], "threshold": [4.8500001430511475, 2.449999988079071, -2.0, 6.1499998569488525, -2.0, 1.5999999642372131, -2.0, -2.0, 2.549999952316284, 4.950000047683716, -2.0, -2.0, -2.0], "value": [[[0.2833333333333333, 0.30833333333333335, 0.4083333333333333]], [[0.4788732394366197, 0.5070422535211268, 0.014084507042253521]], [[1.0, 0.0, 0.0]], [[0.0, 0.972972972972973, 0.02702702702702703]], [[0.0, 1.0, 0.0]], [[0.0, 0.875, 0.125]], [[0.0, 1.0, 0.0]], [[0.0, 0.0, 1.0]], [[0.0, 0.02040816326530612, 0.9795918367346939]], [[0.0, 0.2, 0.8]], [[0.0, 1.0, 0.0]], [[0.0, 0.0, 1.0]], [[0.0, 0.0, 1.0]]]}, {"children_left": [1, -1, 3, 4, -1, 6, -1, -1, 9, 10, -1, -1, -1], "children_right": [2, -1, 8, 5, -1, 7, -1, -1, 12, 11, -1, -1, -1], "feature": [3, -2, 0, 2, -2, 0, -2, -2, 3, 2, -2, -2, -2], "threshold": [0.800000011920929, -2.0, 6.1499998569488525, 4.8500001430511475, -2.0, 5.950000047683716, -2.0, -2.0, 1.550000011920929, 5.0, -2.0, -2.0, -2.0], "value": [[[0.2916666666666667, 0.35, 0.35833333333333334]], [[1.0, 0.0, 0.0]], [[0.0, 0.49411764705882355, 0.5058823529411764]], [[0.0, 0.8125, 0.1875]], [[0.0, 1.0, 0.0]], [[0.0, 0.14285714285714285, 0.8571428571428571]], [[0.0, 0.0, 1.0]], [[0.0, 1.0, 0.0]], [[0.0, 0.3018867924528302, 0.6981132075471698]], [[0.0, 0.8888888888888888, 0.1111111111111111]], [[0.0, 1.0, 0.0]], [[0.0, 0.0, 1.0]], [[0.0, 0.0, 1.0]]]}, {"children_left": [1, -1, 3, 4, -1, 6, 7, -1, -1, 10, -1, -1, -1], "children_right": [2, -1, 12, 5, -1, 9, 8, -1, -1, 11, -1, -1, -1], "feature": [3, -2, 3, 3, -2, 1, 3, -2, -2, 2, -2, -2, -2], "threshold": [0.800000011920929, -2.0, 1.6500000357627869, 1.449999988079071, -2.0, 2.850000023841858, 1.550000011920929, -2.0, -2.0, 5.3500001430511475, -2.0, -2.0, -2.0], "value": [[[0.375, 0.30833333333333335, 0.31666666666666665]], [[1.0, 0.0, 0.0]], [[0.0, 0.49333333333333335, 0.5066666666666667]], [[0.0, 0.8809523809523809, 0.11904761904761904]], [[0.0, 1.0, 0.0]], [[0.0, 0.5833333333333334, 0.4166666666666667]], [[0.0, 0.2, 0.8]], [[0.0, 0.0, 1.0]], [[0.0, 1.0, 0.0]], [[0.0, 0.8571428571428571, 0.14285714285714285]], [[0.0, 1.0, 0.0]], [[0.0, 0.0, 1.0]], [[0.0, 0.0, 1.0]]]}, {"children_left": [1, -1, 3, 4, -1, 6, 7, -1, -1, -1, 11, 12, 13, -1, 15, -1, -1, -1, -1], "children_right": [2, -1, 10, 5, -1, 9, 8, -1, -1, -1, 18, 17, 14, -1, 16, -1, -1, -1, -1], "feature": [3, -2, 0, 3, -2, 2, 0, -2, -2, -2, 2, 0, 2, -2, 1, -2, -2, -2, -2], "threshold": [0.75, -2.0, 6.25, 1.6500000357627869, -2.0, 4.900000095367432, 5.400000095367432, -2.0, -2.0, -2.0, 5.0, 6.3500001430511475, 4.650000095367432, -2.0, 2.600000023841858, -2.0, -2.0, -2.0, -2.0], "value": [[[0.35833333333333334, 0.30833333333333335, 0.3333333333333333]], [[1.0, 0.0, 0.0]], [[0.0, 0.4805194805194805, 0.5194805194805194]], [[0.0, 0.7142857142857143, 0.2857142857142857]], [[0.0, 1.0, 0.0]], [[0.0, 0.07692307692307693, 0.9230769230769231]], [[0.0, 0.3333333333333333, 0.6666666666666666]], [[0.0, 0.0, 1.0]], [[0.0, 1.0, 0.0]], [[0.0, 0.0, 1.0]], [[0.0, 0.2, 0.8]], [[0.0, 0.875, 0.125]], [[0.0, 0.6666666666666666, 0.3333333333333333]], [[0.0, 1.0, 0.0]], [[0.0, 0.5, 0.5]], [[0.0, 1.0, 0.0]], [[0.0, 0.0, 1.0]], [[0.0, 1.0, 0.0]], [[0.0, 0.0, 1.0]]]}, {"children_left": [1, -1, 3, 4, -1, 6, 7, -1, -1, -1, 11, 12, -1, -1, -1], "children_right": [2, -1, 10, 5, -1, 9, 8, -1, -1, -1, 14, 13, -1, -1, -1], "feature": [2, -2, 2, 0, -2, 0, 1, -2, -2, -2, 3, 1, -2, -2, -2], "threshold": [2.699999988079071, -2.0, 4.950000047683716, 6.200000047683716, -2.0, 6.3500001430511475, 2.600000023841858, -2.0, -2.0, -2.0, 1.699999988079071, 2.75, -2.0, -2.0, -2.0], "value": [[[0.39166666666666666, 0.3, 0.30833333333333335]], [[1.0, 0.0, 0.0]], [[0.0, 0.4931506849315068, 0.5068493150684932]], [[0.0, 0.9722222222222222, 0.027777777777777776]], [[0.0, 1.0, 0.0]], [[0.0, 0.8888888888888888, 0.1111111111111111]], [[0.0, 0.6666666666666666, 0.3333333333333333]], [[0.0, 1.0, 0.0]], [[0.0, 0.0, 1.0]], [[0.0, 1.0, 0.0]], [[0.0, 0.02702702702702703, 0.972972972972973]], [[0.0, 0.5, 0.5]], [[0.0, 1.0, 0.0]], [[0.0, 0.0, 1.0]], [[0.0, 0.0, 1.0]]]}, {"children_left": [1, -1, 3, 4, -1, 6, -1, -1, 9, 10, -1, -1, -1], "children_right": [2, -1, 8, 5, -1, 7, -1, -1, 12, 11, -1, -1, -1], "feature": [2, -2, 2, 2, -2, 3, -2, -2, 3, 3, -2, -2, -2], "threshold": [2.699999988079071, -2.0, 4.950000047683716, 4.8500001430511475, -2.0, 1.649999976158142, -2.0, -2.0, 1.699999988079071, 1.550000011920929, -2.0, -2.0, -2.0], "value": [[[0.2833333333333333, 0.375, 0.3416666666666667]], [[1.0, 0.0, 0.0]], [[0.0, 0.5232558139534884, 0.47674418604651164]], [[0.0, 0.9767441860465116, 0.023255813953488372]], [[0.0, 1.0, 0.0]], [[0.0, 0.6666666666666666, 0.3333333333333333]], [[0.0, 1.0, 0.0]], [[0.0, 0.0, 1.0]], [[0.0, 0.06976744186046512, 0.9302325581395349]], [[0.0, 0.6, 0.4]], [[0.0, 0.0, 1.0]], [[0.0, 1.0, 0.0]], [[0.0, 0.0, 1.0]]]}, {"children_left": [1, 2, -1, 4, -1, -1, 7, 8, -1, 10, -1, 12, -1, -1, 15, 16, 17, -1, -1, -1, -1], "children_right": [6, 3, -1, 5, -1, -1, 14, 9, -1, 11, -1, 13, -1, -1, 20, 19, 18, -1, -1, -1, -1], "feature": [0, 3, -2, 3, -2, -2, 2, 3, -2, 2, -2, 0, -2, -2, 3, 0, 2, -2, -2, -2, -2], "threshold": [5.549999952316284, 0.800000011920929, -2.0, 1.550000011920929, -2.0, -2.0, 4.8500001430511475, 0.7000000029802322, -2.0, 4.75, -2.0, 6.049999952316284, -2.0, -2.0, 1.699999988079071, 6.150000095367432, 5.049999952316284, -2.0, -2.0, -2.0, -2.0], "value": [[[0.3, 0.3333333333333333, 0.36666666666666664]], [[0.8048780487804879, 0.14634146341463414, 0.04878048780487805]], [[1.0, 0.0, 0.0]], [[0.0, 0.75, 0.25]], [[0.0, 1.0, 0.0]], [[0.0, 0.0, 1.0]], [[0.0379746835443038, 0.43037974683544306, 0.5316455696202531]], [[0.08823529411764706, 0.8823529411764706, 0.029411764705882353]], [[1.0, 0.0, 0.0]], [[0.0, 0.967741935483871, 0.03225806451612903]], [[0.0, 1.0, 0.0]], [[0.0, 0.6666666666666666, 0.3333333333333333]], [[0.0, 1.0, 0.0]], [[0.0, 0.0, 1.0]], [[0.0, 0.08888888888888889, 0.9111111111111111]], [[0.0, 0.6666666666666666, 0.3333333333333333]], [[0.0, 0.3333333333333333, 0.6666666666666666]], [[0.0, 0.0, 1.0]], [[0.0, 1.0, 0.0]], [[0.0, 1.0, 0.0]], [[0.0, 0.0, 1.0]]]}, {"children_left": [1, 2, -1, -1, 5, -1, 7, 8, 9, -1, -1, -1, 13, -1, -1], "children_right": [4, 3, -1, -1, 6, -1, 12, 11, 10, -1, -1, -1, 14, -1, -1], "feature": [0, 2, -2, -2, 2, -2, 1, 3, 1, -2, -2, -2, 3, -2, -2], "threshold": [5.549999952316284, 2.300000011920929, -2.0, -2.0, 4.8500001430511475, -2.0, 2.75, 1.699999988079071, 2.350000023841858, -2.0, -2.0, -2.0, 1.550000011920929, -2.0, -2.0], "value": [[[0.2916666666666667, 0.36666666666666664, 0.3416666666666667]], [[0.813953488372093, 0.18604651162790697, 0.0]], [[1.0, 0.0, 0.0]], [[0.0, 1.0, 0.0]], [[0.0, 0.4675324675324675, 0.5324675324675324]], [[0.0, 1.0, 0.0]], [[0.0, 0.06818181818181818, 0.9318181818181818]], [[0.0, 0.16666666666666666, 0.8333333333333334]], [[0.0, 0.5, 0.5]], [[0.0, 0.0, 1.0]], [[0.0, 1.0, 0.0]], [[0.0, 0.0, 1.0]], [[0.0, 0.03125, 0.96875]], [[0.0, 1.0, 0.0]], [[0.0, 0.0, 1.0]]]}, {"children_left": [1, -1, 3, 4, -1, 6, -1, 8, -1, -1, 11, 12, -1, -1, -1], "children_right": [2, -1, 10, 5, -1, 7, -1, 9, -1, -1, 14, 13, -1, -1, -1], "feature": [2, -2, 0, 2, -2, 0, -2, 1, -2, -2, 2, 3, -2, -2, -2], "threshold": [2.699999988079071, -2.0, 6.25, 4.900000095367432, -2.0, 5.950000047683716, -2.0, 2.450000047683716, -2.0, -2.0, 4.950000047683716, 1.649999976158142, -2.0, -2.0, -2.0], "value": [[[0.31666666666666665, 0.35, 0.3333333333333333]], [[1.0, 0.0, 0.0]], [[0.0, 0.5121951219512195, 0.4878048780487805]], [[0.0, 0.9, 0.1]], [[0.0, 1.0, 0.0]], [[0.0, 0.3333333333333333, 0.6666666666666666]], [[0.0, 0.0, 1.0]], [[0.0, 0.6666666666666666, 0.3333333333333333]], [[0.0, 0.0, 1.0]], [[0.0, 1.0, 0.0]], [[0.0, 0.14285714285714285, 0.8571428571428571]], [[0.0, 0.75, 0.25]], [[0.0, 1.0, 0.0]], [[0.0, 0.0, 1.0]], [[0.0, 0.0, 1.0]]]}, {"children_left": [1, -1, 3, 4, -1, 6, -1, -1, 9, 10, -1, -1, -1], "children_right": [2, -1, 8, 5, -1, 7, -1, -1, 12, 11, -1, -1, -1], "feature": [3, -2, 3, 2, -2, 2, -2, -2, 3, 0, -2, -2, -2], "threshold": [0.800000011920929, -2.0, 1.699999988079071, 4.950000047683716, -2.0, 5.049999952316284, -2.0, -2.0, 1.8499999642372131, 6.1000001430511475, -2.0, -2.0, -2.0], "value": [[[0.4, 0.2916666666666667, 0.30833333333333335]], [[1.0, 0.0, 0.0]], [[0.0, 0.4861111111111111, 0.5138888888888888]], [[0.0, 0.9444444444444444, 0.05555555555555555]], [[0.0, 1.0, 0.0]], [[0.0, 0.6666666666666666, 0.3333333333333333]], [[0.0, 0.0, 1.0]], [[0.0, 1.0, 0.0]], [[0.0, 0.027777777777777776, 0.9722222222222222]], [[0.0, 0.16666666666666666, 0.8333333333333334]], [[0.0, 1.0, 0.0]], [[0.0, 0.0, 1.0]], [[0.0, 0.0, 1.0]]]}, {"children_left": [1, 2, -1, 4, -1, -1, -1], "children_right": [6, 3, -1, 5, -1, -1, -1], "feature": [3, 3, -2, 2, -2, -2, -2], "threshold": [1.6500000357627869, 0.800000011920929, -2.0, 4.950000047683716, -2.0, -2.0, -2.0], "value": [[[0.25, 0.425, 0.325]], [[0.35294117647058826, 0.6, 0.047058823529411764]], [[1.0, 0.0, 0.0]], [[0.0, 0.9272727272727272, 0.07272727272727272]], [[0.0, 1.0, 0.0]], [[0.0, 0.0, 1.0]], [[0.0, 0.0, 1.0]]]}, {"children_left": [1, 2, -1, 4, -1, 6, -1, -1, 9, 10, 11, -1, -1, -1, -1], "children_right": [8, 3, -1, 5, -1, 7, -1, -1, 14, 13, 12, -1, -1, -1, -1], "feature": [2, 3, -2, 2, -2, 3, -2, -2, 3, 2, 1, -2, -2, -2, -2], "threshold": [4.950000047683716, 0.7000000029802322, -2.0, 4.8500001430511475, -2.0, 1.75, -2.0, -2.0, 1.699999988079071, 5.450000047683716, 2.450000047683716, -2.0, -2.0, -2.0, -2.0], "value": [[[0.2833333333333333, 0.35833333333333334, 0.35833333333333334]], [[0.4473684210526316, 0.5394736842105263, 0.013157894736842105]], [[1.0, 0.0, 0.0]], [[0.0, 0.9761904761904762, 0.023809523809523808]], [[0.0, 1.0, 0.0]], [[0.0, 0.8333333333333334, 0.16666666666666666]], [[0.0, 1.0, 0.0]], [[0.0, 0.0, 1.0]], [[0.0, 0.045454545454545456, 0.9545454545454546]], [[0.0, 0.4, 0.6]], [[0.0, 0.6666666666666666, 0.3333333333333333]], [[0.0, 0.0, 1.0]], [[0.0, 1.0, 0.0]], [[0.0, 0.0, 1.0]], [[0.0, 0.0, 1.0]]]}, {"children_left": [1, 2, -1, 4, -1, -1, 7, 8, -1, 10, -1, 12, -1, 14, -1, -1, 17, 18, -1, 20, -1, -1, -1], "children_right": [6, 3, -1, 5, -1, -1, 16, 9, -1, 11, -1, 13, -1, 15, -1, -1, 22, 19, -1, 21, -1, -1, -1], "feature": [0, 2, -2, 2, -2, -2, 2, 3, -2, 2, -2, 3, -2, 0, -2, -2, 3, 1, -2, 3, -2, -2, -2], "threshold": [5.549999952316284, 2.449999988079071, -2.0, 4.450000047683716, -2.0, -2.0, 4.900000095367432, 0.7000000029802322, -2.0, 4.75, -2.0, 1.5999999642372131, -2.0, 6.049999952316284, -2.0, -2.0, 1.699999988079071, 2.450000047683716, -2.0, 1.550000011920929, -2.0, -2.0, -2.0], "value": [[[0.4166666666666667, 0.275, 0.30833333333333335]], [[0.8421052631578947, 0.14035087719298245, 0.017543859649122806]], [[1.0, 0.0, 0.0]], [[0.0, 0.8888888888888888, 0.1111111111111111]], [[0.0, 1.0, 0.0]], [[0.0, 0.0, 1.0]], [[0.031746031746031744, 0.3968253968253968, 0.5714285714285714]], [[0.07407407407407407, 0.8888888888888888, 0.037037037037037035]], [[1.0, 0.0, 0.0]], [[0.0, 0.96, 0.04]], [[0.0, 1.0, 0.0]], [[0.0, 0.75, 0.25]], [[0.0, 1.0, 0.0]], [[0.0, 0.5, 0.5]], [[0.0, 1.0, 0.0]], [[0.0, 0.0, 1.0]], [[0.0, 0.027777777777777776, 0.9722222222222222]], [[0.0, 0.25, 0.75]], [[0.0, 0.0, 1.0]], [[0.0, 0.5, 0.5]], [[0.0, 0.0, 1.0]], [[0.0, 1.0, 0.0]], [[0.0, 0.0, 1.0]]]}, {"children_left": [1, 2, -1, 4, -1, -1, 7, 8, 9, -1, -1, 12, -1, -1, -1], "children_right": [6, 3, -1, 5, -1, -1, 14, 11, 10, -1, -1, 13, -1, -1, -1], "feature": [0, 3, -2, 0, -2, -2, 3, 2, 3, -2, -2, 0, -2, -2, -2], "threshold": [5.450000047683716, 0.75, -2.0, 4.950000047683716, -2.0, -2.0, 1.699999988079071, 5.0, 0.6000000014901161, -2.0, -2.0, 6.150000095367432, -2.0, -2.0, -2.0], "value": [[[0.2833333333333333, 0.35, 0.36666666666666664]], [[0.8888888888888888, 0.08333333333333333, 0.027777777777777776]], [[1.0, 0.0, 0.0]], [[0.0, 0.75, 0.25]], [[0.0, 0.0, 1.0]], [[0.0, 1.0, 0.0]], [[0.023809523809523808, 0.4642857142857143, 0.5119047619047619]], [[0.043478260869565216, 0.8478260869565217, 0.10869565217391304]], [[0.05128205128205128, 0.9487179487179487, 0.0]], [[1.0, 0.0, 0.0]], [[0.0, 1.0, 0.0]], [[0.0, 0.2857142857142857, 0.7142857142857143]], [[0.0, 1.0, 0.0]], [[0.0, 0.0, 1.0]], [[0.0, 0.0, 1.0]]]}, {"children_left": [1, -1, 3, 4, -1, 6, -1, -1, 9, 10, 11, -1, -1, -1, -1], "children_right": [2, -1, 8, 5, -1, 7, -1, -1, 14, 13, 12, -1, -1, -1, -1], "feature": [3, -2, 2, 3, -2, 1, -2, -2, 3, 0, 1, -2, -2, -2, -2], "threshold": [0.800000011920929, -2.0, 4.950000047683716, 1.6500000357627869, -2.0, 3.0, -2.0, -2.0, 1.699999988079071, 6.150000095367432, 2.450000047683716, -2.0, -2.0, -2.0, -2.0], "value": [[[0.36666666666666664, 0.2833333333333333, 0.35]], [[1.0, 0.0, 0.0]], [[0.0, 0.4473684210526316, 0.5526315789473685]], [[0.0, 0.825, 0.175]], [[0.0, 1.0, 0.0]], [[0.0, 0.125, 0.875]], [[0.0, 0.0, 1.0]], [[0.0, 1.0, 0.0]], [[0.0, 0.027777777777777776, 0.9722222222222222]], [[0.0, 0.2, 0.8]], [[0.0, 0.5, 0.5]], [[0.0, 0.0, 1.0]], [[0.0, 1.0, 0.0]], [[0.0, 0.0, 1.0]], [[0.0, 0.0, 1.0]]]}, {"children_left": [1, -1, 3, 4, -1, -1, 7, 8, -1, -1, -1], "children_right": [2, -1, 6, 5, -1, -1, 10, 9, -1, -1, -1], "feature": [2, -2, 2, 0, -2, -2, 3, 2, -2, -2, -2], "threshold": [2.449999988079071, -2.0, 4.8500001430511475, 4.950000047683716, -2.0, -2.0, 1.699999988079071, 5.450000047683716, -2.0, -2.0, -2.0], "value": [[[0.2916666666666667, 0.36666666666666664, 0.3416666666666667]], [[1.0, 0.0, 0.0]], [[0.0, 0.5176470588235295, 0.4823529411764706]], [[0.0, 0.9761904761904762, 0.023809523809523808]], [[0.0, 0.0, 1.0]], [[0.0, 1.0, 0.0]], [[0.0, 0.06976744186046512, 0.9302325581395349]], [[0.0, 0.75, 0.25]], [[0.0, 1.0, 0.0]], [[0.0, 0.0, 1.0]], [[0.0, 0.0, 1.0]]]}, {"children_left": [1, -1, 3, 4, -1, -1, 7, 8, 9, -1, -1, -1, -1], "children_right": [2, -1, 6, 5, -1, -1, 12, 11, 10, -1, -1, -1, -1], "feature": [2, -2, 3, 2, -2, -2, 3, 0, 1, -2, -2, -2, -2], "threshold": [2.600000023841858, -2.0, 1.600000023841858, 4.950000047683716, -2.0, -2.0, 1.8499999642372131, 6.049999952316284, 2.850000023841858, -2.0, -2.0, -2.0, -2.0], "value": [[[0.2833333333333333, 0.39166666666666666, 0.325]], [[1.0, 0.0, 0.0]], [[0.0, 0.5465116279069767, 0.45348837209302323]], [[0.0, 0.9387755102040817, 0.061224489795918366]], [[0.0, 1.0, 0.0]], [[0.0, 0.0, 1.0]], [[0.0, 0.02702702702702703, 0.972972972972973]], [[0.0, 0.1111111111111111, 0.8888888888888888]], [[0.0, 0.25, 0.75]], [[0.0, 0.0, 1.0]], [[0.0, 1.0, 0.0]], [[0.0, 0.0, 1.0]], [[0.0, 0.0, 1.0]]]}, {"children_left": [1, -1, 3, 4, -1, 6, -1, -1, 9, 10, -1, -1, -1], "children_right": [2, -1, 8, 5, -1, 7, -1, -1, 12, 11, -1, -1, -1], "feature": [3, -2, 3, 2, -2, 1, -2, -2, 2, 1, -2, -2, -2], "threshold": [0.800000011920929, -2.0, 1.6500000357627869, 5.0, -2.0, 2.75, -2.0, -2.0, 4.900000095367432, 3.0, -2.0, -2.0, -2.0], "value": [[[0.4166666666666667, 0.25, 0.3333333333333333]], [[1.0, 0.0, 0.0]], [[0.0, 0.42857142857142855, 0.5714285714285714]], [[0.0, 0.9333333333333333, 0.06666666666666667]], [[0.0, 1.0, 0.0]], [[0.0, 0.5, 0.5]], [[0.0, 1.0, 0.0]], [[0.0, 0.0, 1.0]], [[0.0, 0.05, 0.95]], [[0.0, 0.4, 0.6]], [[0.0, 0.0, 1.0]], [[0.0, 1.0, 0.0]], [[0.0, 0.0, 1.0]]]}, {"children_left": [1, 2, -1, 4, -1, -1, 7, 8, -1, -1, 11, 12, -1, -1, -1], "children_right": [6, 3, -1, 5, -1, -1, 10, 9, -1, -1, 14, 13, -1, -1, -1], "feature": [0, 3, -2, 1, -2, -2, 2, 3, -2, -2, 0, 3, -2, -2, -2], "threshold": [5.450000047683716, 0.800000011920929, -2.0, 2.25, -2.0, -2.0, 4.8500001430511475, 0.7000000029802322, -2.0, -2.0, 6.099999904632568, 1.699999988079071, -2.0, -2.0, -2.0], "value": [[[0.30833333333333335, 0.375, 0.31666666666666665]], [[0.9210526315789473, 0.02631578947368421, 0.05263157894736842]], [[1.0, 0.0, 0.0]], [[0.0, 0.3333333333333333, 0.6666666666666666]], [[0.0, 1.0, 0.0]], [[0.0, 0.0, 1.0]], [[0.024390243902439025, 0.5365853658536586, 0.43902439024390244]], [[0.044444444444444446, 0.9555555555555556, 0.0]], [[1.0, 0.0, 0.0]], [[0.0, 1.0, 0.0]], [[0.0, 0.02702702702702703, 0.972972972972973]], [[0.0, 0.1111111111111111, 0.8888888888888888]], [[0.0, 1.0, 0.0]], [[0.0, 0.0, 1.0]], [[0.0, 0.0, 1.0]]]}, {"children_left": [1, -1, 3, 4, 5, -1, 7, -1, -1, -1, 11, 12, 13, -1, -1, -1, -1], "children_right": [2, -1, 10, 9, 6, -1, 8, -1, -1, -1, 16, 15, 14, -1, -1, -1, -1], "feature": [3, -2, 0, 3, 3, -2, 2, -2, -2, -2, 3, 1, 2, -2, -2, -2, -2], "threshold": [0.800000011920929, -2.0, 6.1499998569488525, 1.8499999642372131, 1.449999988079071, -2.0, 4.900000095367432, -2.0, -2.0, -2.0, 1.550000011920929, 2.850000023841858, 4.950000047683716, -2.0, -2.0, -2.0, -2.0], "value": [[[0.36666666666666664, 0.30833333333333335, 0.325]], [[1.0, 0.0, 0.0]], [[0.0, 0.4868421052631579, 0.5131578947368421]], [[0.0, 0.8484848484848485, 0.15151515151515152]], [[0.0, 0.9655172413793104, 0.034482758620689655]], [[0.0, 1.0, 0.0]], [[0.0, 0.75, 0.25]], [[0.0, 1.0, 0.0]], [[0.0, 0.0, 1.0]], [[0.0, 0.0, 1.0]], [[0.0, 0.20930232558139536, 0.7906976744186046]], [[0.0, 0.9, 0.1]], [[0.0, 0.75, 0.25]], [[0.0, 1.0, 0.0]], [[0.0, 0.0, 1.0]], [[0.0, 1.0, 0.0]], [[0.0, 0.0, 1.0]]]}, {"children_left": [1, 2, 3, -1, -1, -1, 7, 8, 9, -1, 11, -1, 13, -1, -1, -1, -1], "children_right": [6, 5, 4, -1, -1, -1, 16, 15, 10, -1, 12, -1, 14, -1, -1, -1, -1], "feature": [0, 1, 2, -2, -2, -2, 2, 1, 2, -2, 3, -2, 0, -2, -2, -2, -2], "threshold": [5.450000047683716, 2.8000000715255737, 4.200000047683716, -2.0, -2.0, -2.0, 4.900000095367432, 3.450000047683716, 4.75, -2.0, 1.5999999642372131, -2.0, 6.049999952316284, -2.0, -2.0, -2.0, -2.0], "value": [[[0.35833333333333334, 0.26666666666666666, 0.375]], [[0.9302325581395349, 0.046511627906976744, 0.023255813953488372]], [[0.0, 0.6666666666666666, 0.3333333333333333]], [[0.0, 1.0, 0.0]], [[0.0, 0.0, 1.0]], [[1.0, 0.0, 0.0]], [[0.03896103896103896, 0.38961038961038963, 0.5714285714285714]], [[0.08823529411764706, 0.8823529411764706, 0.029411764705882353]], [[0.0, 0.967741935483871, 0.03225806451612903]], [[0.0, 1.0, 0.0]], [[0.0, 0.6666666666666666, 0.3333333333333333]], [[0.0, 1.0, 0.0]], [[0.0, 0.5, 0.5]], [[0.0, 1.0, 0.0]], [[0.0, 0.0, 1.0]], [[1.0, 0.0, 0.0]], [[0.0, 0.0, 1.0]]]}, {"children_left": [1, 2, -1, 4, -1, -1, 7, 8, -1, 10, 11, -1, 13, -1, -1, -1, 17, 18, -1, -1, -1], "children_right": [6, 3, -1, 5, -1, -1, 16, 9, -1, 15, 12, -1, 14, -1, -1, -1, 20, 19, -1, -1, -1], "feature": [0, 3, -2, 3, -2, -2, 3, 3, -2, 0, 2, -2, 3, -2, -2, -2, 2, 1, -2, -2, -2], "threshold": [5.549999952316284, 0.800000011920929, -2.0, 1.5, -2.0, -2.0, 1.699999988079071, 0.7000000029802322, -2.0, 7.099999904632568, 4.950000047683716, -2.0, 1.550000011920929, -2.0, -2.0, -2.0, 4.8500001430511475, 3.0, -2.0, -2.0, -2.0], "value": [[[0.38333333333333336, 0.26666666666666666, 0.35]], [[0.8653846153846154, 0.09615384615384616, 0.038461538461538464]], [[1.0, 0.0, 0.0]], [[0.0, 0.7142857142857143, 0.2857142857142857]], [[0.0, 1.0, 0.0]], [[0.0, 0.0, 1.0]], [[0.014705882352941176, 0.39705882352941174, 0.5882352941176471]], [[0.03225806451612903, 0.8387096774193549, 0.12903225806451613]], [[1.0, 0.0, 0.0]], [[0.0, 0.8666666666666667, 0.13333333333333333]], [[0.0, 0.896551724137931, 0.10344827586206896]], [[0.0, 1.0, 0.0]], [[0.0, 0.25, 0.75]], [[0.0, 0.0, 1.0]], [[0.0, 1.0, 0.0]], [[0.0, 0.0, 1.0]], [[0.0, 0.02702702702702703, 0.972972972972973]], [[0.0, 0.5, 0.5]], [[0.0, 0.0, 1.0]], [[0.0, 1.0, 0.0]], [[0.0, 0.0, 1.0]]]}, {"children_left": [1, 2, -1, 4, -1, -1, 7, 8, -1, -1, -1], "children_right": [6, 3, -1, 5, -1, -1, 10, 9, -1, -1, -1], "feature": [3, 3, -2, 2, -2, -2, 2, 0, -2, -2, -2], "threshold": [1.699999988079071, 0.800000011920929, -2.0, 5.0, -2.0, -2.0, 4.8500001430511475, 6.049999952316284, -2.0, -2.0, -2.0], "value": [[[0.275, 0.3333333333333333, 0.39166666666666666]], [[0.44, 0.52, 0.04]], [[1.0, 0.0, 0.0]], [[0.0, 0.9285714285714286, 0.07142857142857142]], [[0.0, 1.0, 0.0]], [[0.0, 0.0, 1.0]], [[0.0, 0.022222222222222223, 0.9777777777777777]], [[0.0, 0.3333333333333333, 0.6666666666666666]], [[0.0, 1.0, 0.0]], [[0.0, 0.0, 1.0]], [[0.0, 0.0, 1.0]]]}, {"children_left": [1, -1, 3, 4, -1, -1, 7, 8, -1, 10, -1, -1, -1], "children_right": [2, -1, 6, 5, -1, -1, 12, 9, -1, 11, -1, -1, -1], "feature": [3, -2, 2, 3, -2, -2, 3, 3, -2, 2, -2, -2, -2], "threshold": [0.75, -2.0, 4.950000047683716, 1.649999976158142, -2.0, -2.0, 1.699999988079071, 1.550000011920929, -2.0, 5.450000047683716, -2.0, -2.0, -2.0], "value": [[[0.3416666666666667, 0.30833333333333335, 0.35]], [[1.0, 0.0, 0.0]], [[0.0, 0.46835443037974683, 0.5316455696202531]], [[0.0, 0.9473684210526315, 0.05263157894736842]], [[0.0, 1.0, 0.0]], [[0.0, 0.0, 1.0]], [[0.0, 0.024390243902439025, 0.975609756097561]], [[0.0, 0.25, 0.75]], [[0.0, 0.0, 1.0]], [[0.0, 0.5, 0.5]], [[0.0, 1.0, 0.0]], [[0.0, 0.0, 1.0]], [[0.0, 0.0, 1.0]]]}, {"children_left": [1, -1, 3, 4, -1, -1, 7, 8, -1, -1, -1], "children_right": [2, -1, 6, 5, -1, -1, 10, 9, -1, -1, -1], "feature": [2, -2, 3, 2, -2, -2, 2, 1, -2, -2, -2], "threshold": [2.699999988079071, -2.0, 1.600000023841858, 5.0, -2.0, -2.0, 4.8500001430511475, 3.0, -2.0, -2.0, -2.0], "value": [[[0.3416666666666667, 0.325, 0.3333333333333333]], [[1.0, 0.0, 0.0]], [[0.0, 0.4936708860759494, 0.5063291139240507]], [[0.0, 0.95, 0.05]], [[0.0, 1.0, 0.0]], [[0.0, 0.0, 1.0]], [[0.0, 0.02564102564102564, 0.9743589743589743]], [[0.0, 0.3333333333333333, 0.6666666666666666]], [[0.0, 0.0, 1.0]], [[0.0, 1.0, 0.0]], [[0.0, 0.0, 1.0]]]}, {"children_left": [1, 2, -1, -1, 5, 6, -1, -1, 9, 10, -1, 12, -1, -1, -1], "children_right": [4, 3, -1, -1, 8, 7, -1, -1, 14, 11, -1, 13, -1, -1, -1], "feature": [0, 3, -2, -2, 2, 2, -2, -2, 1, 1, -2, 3, -2, -2, -2], "threshold": [5.549999952316284, 0.800000011920929, -2.0, -2.0, 4.950000047683716, 2.549999952316284, -2.0, -2.0, 2.75, 2.600000023841858, -2.0, 1.75, -2.0, -2.0, -2.0], "value": [[[0.36666666666666664, 0.3, 0.3333333333333333]], [[0.8269230769230769, 0.17307692307692307, 0.0]], [[1.0, 0.0, 0.0]], [[0.0, 1.0, 0.0]], [[0.014705882352941176, 0.39705882352941174, 0.5882352941176471]], [[0.037037037037037035, 0.9629629629629629, 0.0]], [[1.0, 0.0, 0.0]], [[0.0, 1.0, 0.0]], [[0.0, 0.024390243902439025, 0.975609756097561]], [[0.0, 0.14285714285714285, 0.8571428571428571]], [[0.0, 0.0, 1.0]], [[0.0, 0.3333333333333333, 0.6666666666666666]], [[0.0, 1.0, 0.0]], [[0.0, 0.0, 1.0]], [[0.0, 0.0, 1.0]]]}, {"children_left": [1, -1, 3, 4, -1, 6, 7, -1, -1, -1, 11, 12, 13, 14, -1, -1, -1, -1, -1], "children_right": [2, -1, 10, 5, -1, 9, 8, -1, -1, -1, 18, 17, 16, 15, -1, -1, -1, -1, -1], "feature": [3, -2, 2, 0, -2, 0, 3, -2, -2, -2, 1, 3, 3, 2, -2, -2, -2, -2, -2], "threshold": [0.800000011920929, -2.0, 4.8500001430511475, 6.1499998569488525, -2.0, 6.25, 1.649999976158142, -2.0, -2.0, -2.0, 2.75, 1.699999988079071, 1.550000011920929, 4.950000047683716, -2.0, -2.0, -2.0, -2.0, -2.0], "value": [[[0.375, 0.2916666666666667, 0.3333333333333333]], [[1.0, 0.0, 0.0]], [[0.0, 0.4666666666666667, 0.5333333333333333]], [[0.0, 0.9428571428571428, 0.05714285714285714]], [[0.0, 1.0, 0.0]], [[0.0, 0.8333333333333334, 0.16666666666666666]], [[0.0, 0.6, 0.4]], [[0.0, 1.0, 0.0]], [[0.0, 0.0, 1.0]], [[0.0, 1.0, 0.0]], [[0.0, 0.05, 0.95]], [[0.0, 0.25, 0.75]], [[0.0, 0.5, 0.5]], [[0.0, 0.3333333333333333, 0.6666666666666666]], [[0.0, 1.0, 0.0]], [[0.0, 0.0, 1.0]], [[0.0, 1.0, 0.0]], [[0.0, 0.0, 1.0]], [[0.0, 0.0, 1.0]]]}, {"children_left": [1, -1, 3, 4, -1, -1, 7, 8, -1, -1, -1], "children_right": [2, -1, 6, 5, -1, -1, 10, 9, -1, -1, -1], "feature": [2, -2, 2, 3, -2, -2, 0, 0, -2, -2, -2], "threshold": [2.699999988079071, -2.0, 4.8500001430511475, 1.6500000357627869, -2.0, -2.0, 6.099999904632568, 5.950000047683716, -2.0, -2.0, -2.0], "value": [[[0.35, 0.25833333333333336, 0.39166666666666666]], [[1.0, 0.0, 0.0]], [[0.0, 0.3974358974358974, 0.6025641025641025]], [[0.0, 0.9375, 0.0625]], [[0.0, 1.0, 0.0]], [[0.0, 0.0, 1.0]], [[0.0, 0.021739130434782608, 0.9782608695652174]], [[0.0, 0.09090909090909091, 0.9090909090909091]], [[0.0, 0.0, 1.0]], [[0.0, 1.0, 0.0]], [[0.0, 0.0, 1.0]]]}, {"children_left": [1, -1, 3, 4, -1, 6, -1, -1, 9, 10, -1, -1, -1], "children_right": [2, -1, 8, 5, -1, 7, -1, -1, 12, 11, -1, -1, -1], "feature": [3, -2, 2, 3, -2, 0, -2, -2, 2, 3, -2, -2, -2], "threshold": [0.800000011920929, -2.0, 4.8500001430511475, 1.6500000357627869, -2.0, 5.400000095367432, -2.0, -2.0, 4.950000047683716, 1.649999976158142, -2.0, -2.0, -2.0], "value": [[[0.375, 0.24166666666666667, 0.38333333333333336]], [[1.0, 0.0, 0.0]], [[0.0, 0.38666666666666666, 0.6133333333333333]], [[0.0, 0.9655172413793104, 0.034482758620689655]], [[0.0, 1.0, 0.0]], [[0.0, 0.5, 0.5]], [[0.0, 0.0, 1.0]], [[0.0, 1.0, 0.0]], [[0.0, 0.021739130434782608, 0.9782608695652174]], [[0.0, 0.2, 0.8]], [[0.0, 1.0, 0.0]], [[0.0, 0.0, 1.0]], [[0.0, 0.0, 1.0]]]}, {"children_left": [1, -1, 3, -1, 5, -1, -1], "children_right": [2, -1, 4, -1, 6, -1, -1], "feature": [2, -2, 2, -2, 3, -2, -2], "threshold": [2.699999988079071, -2.0, 4.8500001430511475, -2.0, 1.550000011920929, -2.0, -2.0], "value": [[[0.4083333333333333, 0.3, 0.2916666666666667]], [[1.0, 0.0, 0.0]], [[0.0, 0.5070422535211268, 0.49295774647887325]], [[0.0, 1.0, 0.0]], [[0.0, 0.07894736842105263, 0.9210526315789473]], [[0.0, 1.0, 0.0]], [[0.0, 0.0, 1.0]]]}, {"children_left": [1, -1, 3, 4, -1, 6, -1, 8, -1, 10, -1, -1, 13, 14, -1, -1, -1], "children_right": [2, -1, 12, 5, -1, 7, -1, 9, -1, 11, -1, -1, 16, 15, -1, -1, -1], "feature": [3, -2, 3, 0, -2, 3, -2, 0, -2, 0, -2, -2, 0, 3, -2, -2, -2], "threshold": [0.800000011920929, -2.0, 1.699999988079071, 6.25, -2.0, 1.449999988079071, -2.0, 6.400000095367432, -2.0, 7.049999952316284, -2.0, -2.0, 6.049999952316284, 1.8499999642372131, -2.0, -2.0, -2.0], "value": [[[0.4083333333333333, 0.3, 0.2916666666666667]], [[1.0, 0.0, 0.0]], [[0.0, 0.5070422535211268, 0.49295774647887325]], [[0.0, 0.8947368421052632, 0.10526315789473684]], [[0.0, 1.0, 0.0]], [[0.0, 0.6666666666666666, 0.3333333333333333]], [[0.0, 1.0, 0.0]], [[0.0, 0.42857142857142855, 0.5714285714285714]], [[0.0, 0.0, 1.0]], [[0.0, 0.75, 0.25]], [[0.0, 1.0, 0.0]], [[0.0, 0.0, 1.0]], [[0.0, 0.06060606060606061, 0.9393939393939394]], [[0.0, 0.3333333333333333, 0.6666666666666666]], [[0.0, 1.0, 0.0]], [[0.0, 0.0, 1.0]], [[0.0, 0.0, 1.0]]]}, {"children_left": [1, -1, 3, 4, -1, -1, 7, 8, -1, -1, -1], "children_right": [2, -1, 6, 5, -1, -1, 10, 9, -1, -1, -1], "feature": [2, -2, 2, 0, -2, -2, 2, 0, -2, -2, -2], "threshold": [2.699999988079071, -2.0, 4.8500001430511475, 4.950000047683716, -2.0, -2.0, 4.950000047683716, 6.25, -2.0, -2.0, -2.0], "value": [[[0.3333333333333333, 0.325, 0.3416666666666667]], [[1.0, 0.0, 0.0]], [[0.0, 0.4875, 0.5125]], [[0.0, 0.9736842105263158, 0.02631578947368421]], [[0.0, 0.0, 1.0]], [[0.0, 1.0, 0.0]], [[0.0, 0.047619047619047616, 0.9523809523809523]], [[0.0, 0.4, 0.6]], [[0.0, 0.0, 1.0]], [[0.0, 1.0, 0.0]], [[0.0, 0.0, 1.0]]]}, {"children_left": [1, -1, 3, 4, 5, -1, 7, -1, 9, -1, -1, -1, 13, 14, -1, -1, -1], "children_right": [2, -1, 12, 11, 6, -1, 8, -1, 10, -1, -1, -1, 16, 15, -1, -1, -1], "feature": [3, -2, 3, 0, 2, -2, 1, -2, 3, -2, -2, -2, 2, 2, -2, -2, -2], "threshold": [0.800000011920929, -2.0, 1.6500000357627869, 7.099999904632568, 4.849999904632568, -2.0, 2.450000047683716, -2.0, 1.550000011920929, -2.0, -2.0, -2.0, 4.8500001430511475, 4.650000095367432, -2.0, -2.0, -2.0], "value": [[[0.2833333333333333, 0.35, 0.36666666666666664]], [[1.0, 0.0, 0.0]], [[0.0, 0.4883720930232558, 0.5116279069767442]], [[0.0, 0.8913043478260869, 0.10869565217391304]], [[0.0, 0.9318181818181818, 0.06818181818181818]], [[0.0, 1.0, 0.0]], [[0.0, 0.4, 0.6]], [[0.0, 0.0, 1.0]], [[0.0, 0.6666666666666666, 0.3333333333333333]], [[0.0, 0.0, 1.0]], [[0.0, 1.0, 0.0]], [[0.0, 0.0, 1.0]], [[0.0, 0.025, 0.975]], [[0.0, 0.3333333333333333, 0.6666666666666666]], [[0.0, 0.0, 1.0]], [[0.0, 1.0, 0.0]], [[0.0, 0.0, 1.0]]]}, {"children_left": [1, 2, -1, 4, -1, -1, 7, 8, -1, 10, -1, -1, 13, 14, -1, 16, -1, -1, -1], "children_right": [6, 3, -1, 5, -1, -1, 12, 9, -1, 11, -1, -1, 18, 15, -1, 17, -1, -1, -1], "feature": [0, 2, -2, 2, -2, -2, 2, 3, -2, 3, -2, -2, 3, 1, -2, 0, -2, -2, -2], "threshold": [5.450000047683716, 2.449999988079071, -2.0, 4.0, -2.0, -2.0, 4.950000047683716, 0.7000000029802322, -2.0, 1.699999988079071, -2.0, -2.0, 1.699999988079071, 2.450000047683716, -2.0, 6.150000095367432, -2.0, -2.0, -2.0], "value": [[[0.3333333333333333, 0.30833333333333335, 0.35833333333333334]], [[0.8571428571428571, 0.11904761904761904, 0.023809523809523808]], [[1.0, 0.0, 0.0]], [[0.0, 0.8333333333333334, 0.16666666666666666]], [[0.0, 1.0, 0.0]], [[0.0, 0.0, 1.0]], [[0.05128205128205128, 0.41025641025641024, 0.5384615384615384]], [[0.10256410256410256, 0.7948717948717948, 0.10256410256410256]], [[1.0, 0.0, 0.0]], [[0.0, 0.8857142857142857, 0.11428571428571428]], [[0.0, 1.0, 0.0]], [[0.0, 0.0, 1.0]], [[0.0, 0.02564102564102564, 0.9743589743589743]], [[0.0, 0.2, 0.8]], [[0.0, 0.0, 1.0]], [[0.0, 0.3333333333333333, 0.6666666666666666]], [[0.0, 1.0, 0.0]], [[0.0, 0.0, 1.0]], [[0.0, 0.0, 1.0]]]}, {"children_left": [1, -1, 3, 4, 5, 6, -1, -1, -1, -1, 11, -1, -1], "children_right": [2, -1, 10, 9, 8, 7, -1, -1, -1, -1, 12, -1, -1], "feature": [2, -2, 0, 3, 2, 0, -2, -2, -2, -2, 2, -2, -2], "threshold": [2.449999988079071, -2.0, 6.1499998569488525, 1.8499999642372131, 4.900000095367432, 4.950000047683716, -2.0, -2.0, -2.0, -2.0, 4.950000047683716, -2.0, -2.0], "value": [[[0.3333333333333333, 0.31666666666666665, 0.35]], [[1.0, 0.0, 0.0]], [[0.0, 0.475, 0.525]], [[0.0, 0.75, 0.25]], [[0.0, 0.9, 0.1]], [[0.0, 0.9642857142857143, 0.03571428571428571]], [[0.0, 0.0, 1.0]], [[0.0, 1.0, 0.0]], [[0.0, 0.0, 1.0]], [[0.0, 0.0, 1.0]], [[0.0, 0.25, 0.75]], [[0.0, 1.0, 0.0]], [[0.0, 0.0, 1.0]]]}, {"children_left": [1, -1, 3, 4, -1, 6, -1, -1, 9, -1, -1], "children_right": [2, -1, 8, 5, -1, 7, -1, -1, 10, -1, -1], "feature": [2, -2, 2, 2, -2, 0, -2, -2, 3, -2, -2], "threshold": [2.699999988079071, -2.0, 4.8500001430511475, 4.75, -2.0, 6.049999952316284, -2.0, -2.0, 1.699999988079071, -2.0, -2.0], "value": [[[0.4083333333333333, 0.25833333333333336, 0.3333333333333333]], [[1.0, 0.0, 0.0]], [[0.0, 0.43661971830985913, 0.5633802816901409]], [[0.0, 0.9655172413793104, 0.034482758620689655]], [[0.0, 1.0, 0.0]], [[0.0, 0.75, 0.25]], [[0.0, 1.0, 0.0]], [[0.0, 0.0, 1.0]], [[0.0, 0.07142857142857142, 0.9285714285714286]], [[0.0, 1.0, 0.0]], [[0.0, 0.0, 1.0]]]}, {"children_left": [1, -1, 3, 4, -1, 6, 7, -1, -1, -1, -1], "children_right": [2, -1, 10, 5, -1, 9, 8, -1, -1, -1, -1], "feature": [2, -2, 2, 0, -2, 0, 1, -2, -2, -2, -2], "threshold": [2.449999988079071, -2.0, 4.950000047683716, 6.099999904632568, -2.0, 6.25, 2.5, -2.0, -2.0, -2.0, -2.0], "value": [[[0.35, 0.2833333333333333, 0.36666666666666664]], [[1.0, 0.0, 0.0]], [[0.0, 0.4358974358974359, 0.5641025641025641]], [[0.0, 0.918918918918919, 0.08108108108108109]], [[0.0, 1.0, 0.0]], [[0.0, 0.7, 0.3]], [[0.0, 0.25, 0.75]], [[0.0, 1.0, 0.0]], [[0.0, 0.0, 1.0]], [[0.0, 1.0, 0.0]], [[0.0, 0.0, 1.0]]]}, {"children_left": [1, 2, -1, 4, -1, -1, 7, 8, 9, -1, -1, -1, 13, 14, -1, -1, -1], "children_right": [6, 3, -1, 5, -1, -1, 12, 11, 10, -1, -1, -1, 16, 15, -1, -1, -1], "feature": [0, 3, -2, 0, -2, -2, 3, 2, 2, -2, -2, -2, 2, 0, -2, -2, -2], "threshold": [5.549999952316284, 0.800000011920929, -2.0, 4.950000047683716, -2.0, -2.0, 1.699999988079071, 4.950000047683716, 2.5, -2.0, -2.0, -2.0, 4.8500001430511475, 6.049999952316284, -2.0, -2.0, -2.0], "value": [[[0.4166666666666667, 0.31666666666666665, 0.26666666666666666]], [[0.8909090909090909, 0.09090909090909091, 0.01818181818181818]], [[1.0, 0.0, 0.0]], [[0.0, 0.8333333333333334, 0.16666666666666666]], [[0.0, 0.0, 1.0]], [[0.0, 1.0, 0.0]], [[0.015384615384615385, 0.5076923076923077, 0.47692307692307695]], [[0.02631578947368421, 0.8421052631578947, 0.13157894736842105]], [[0.030303030303030304, 0.9696969696969697, 0.0]], [[1.0, 0.0, 0.0]], [[0.0, 1.0, 0.0]], [[0.0, 0.0, 1.0]], [[0.0, 0.037037037037037035, 0.9629629629629629]], [[0.0, 0.5, 0.5]], [[0.0, 1.0, 0.0]], [[0.0, 0.0, 1.0]], [[0.0, 0.0, 1.0]]]}, {"children_left": [1, -1, 3, 4, -1, 6, 7, -1, 9, -1, -1, -1, 13, 14, -1, 16, -1, -1, -1], "children_right": [2, -1, 12, 5, -1, 11, 8, -1, 10, -1, -1, -1, 18, 15, -1, 17, -1, -1, -1], "feature": [3, -2, 3, 3, -2, 0, 2, -2, 0, -2, -2, -2, 2, 2, -2, 1, -2, -2, -2], "threshold": [0.800000011920929, -2.0, 1.6500000357627869, 1.449999988079071, -2.0, 7.049999952316284, 5.0, -2.0, 6.150000095367432, -2.0, -2.0, -2.0, 4.900000095367432, 4.650000095367432, -2.0, 3.0, -2.0, -2.0, -2.0], "value": [[[0.35833333333333334, 0.375, 0.26666666666666666]], [[1.0, 0.0, 0.0]], [[0.0, 0.5844155844155844, 0.4155844155844156]], [[0.0, 0.9166666666666666, 0.08333333333333333]], [[0.0, 1.0, 0.0]], [[0.0, 0.7142857142857143, 0.2857142857142857]], [[0.0, 0.7692307692307693, 0.23076923076923078]], [[0.0, 1.0, 0.0]], [[0.0, 0.25, 0.75]], [[0.0, 1.0, 0.0]], [[0.0, 0.0, 1.0]], [[0.0, 0.0, 1.0]], [[0.0, 0.034482758620689655, 0.9655172413793104]], [[0.0, 0.25, 0.75]], [[0.0, 0.0, 1.0]], [[0.0, 0.5, 0.5]], [[0.0, 0.0, 1.0]], [[0.0, 1.0, 0.0]], [[0.0, 0.0, 1.0]]]}, {"children_left": [1, -1, 3, 4, 5, -1, -1, 8, -1, -1, 11, 12, -1, -1, -1], "children_right": [2, -1, 10, 7, 6, -1, -1, 9, -1, -1, 14, 13, -1, -1, -1], "feature": [3, -2, 3, 1, 2, -2, -2, 2, -2, -2, 2, 1, -2, -2, -2], "threshold": [0.7000000029802322, -2.0, 1.6500000357627869, 2.25, 4.75, -2.0, -2.0, 5.0, -2.0, -2.0, 4.8500001430511475, 3.0, -2.0, -2.0, -2.0], "value": [[[0.31666666666666665, 0.30833333333333335, 0.375]], [[1.0, 0.0, 0.0]], [[0.0, 0.45121951219512196, 0.5487804878048781]], [[0.0, 0.9230769230769231, 0.07692307692307693]], [[0.0, 0.5, 0.5]], [[0.0, 1.0, 0.0]], [[0.0, 0.0, 1.0]], [[0.0, 0.9714285714285714, 0.02857142857142857]], [[0.0, 1.0, 0.0]], [[0.0, 0.0, 1.0]], [[0.0, 0.023255813953488372, 0.9767441860465116]], [[0.0, 0.25, 0.75]], [[0.0, 0.0, 1.0]], [[0.0, 1.0, 0.0]], [[0.0, 0.0, 1.0]]]}, {"children_left": [1, -1, 3, 4, -1, -1, 7, 8, -1, 10, -1, -1, -1], "children_right": [2, -1, 6, 5, -1, -1, 12, 9, -1, 11, -1, -1, -1], "feature": [2, -2, 3, 2, -2, -2, 3, 1, -2, 2, -2, -2, -2], "threshold": [2.699999988079071, -2.0, 1.550000011920929, 4.950000047683716, -2.0, -2.0, 1.699999988079071, 2.850000023841858, -2.0, 5.150000095367432, -2.0, -2.0, -2.0], "value": [[[0.3333333333333333, 0.3416666666666667, 0.325]], [[1.0, 0.0, 0.0]], [[0.0, 0.5125, 0.4875]], [[0.0, 0.9512195121951219, 0.04878048780487805]], [[0.0, 1.0, 0.0]], [[0.0, 0.0, 1.0]], [[0.0, 0.05128205128205128, 0.9487179487179487]], [[0.0, 0.4, 0.6]], [[0.0, 1.0, 0.0]], [[0.0, 0.25, 0.75]], [[0.0, 1.0, 0.0]], [[0.0, 0.0, 1.0]], [[0.0, 0.0, 1.0]]]}, {"children_left": [1, -1, 3, 4, -1, -1, -1], "children_right": [2, -1, 6, 5, -1, -1, -1], "feature": [3, -2, 2, 3, -2, -2, -2], "threshold": [0.75, -2.0, 4.950000047683716, 1.6500000357627869, -2.0, -2.0, -2.0], "value": [[[0.30833333333333335, 0.3333333333333333, 0.35833333333333334]], [[1.0, 0.0, 0.0]], [[0.0, 0.4819277108433735, 0.5180722891566265]], [[0.0, 0.9523809523809523, 0.047619047619047616]], [[0.0, 1.0, 0.0]], [[0.0, 0.0, 1.0]], [[0.0, 0.0, 1.0]]]}, {"children_left": [1, -1, 3, 4, -1, -1, 7, 8, -1, -1, -1], "children_right": [2, -1, 6, 5, -1, -1, 10, 9, -1, -1, -1], "feature": [2, -2, 3, 2, -2, -2, 2, 1, -2, -2, -2], "threshold": [2.449999988079071, -2.0, 1.600000023841858, 4.950000047683716, -2.0, -2.0, 4.8500001430511475, 3.0, -2.0, -2.0, -2.0], "value": [[[0.2916666666666667, 0.35833333333333334, 0.35]], [[1.0, 0.0, 0.0]], [[0.0, 0.5058823529411764, 0.49411764705882355]], [[0.0, 0.9761904761904762, 0.023809523809523808]], [[0.0, 1.0, 0.0]], [[0.0, 0.0, 1.0]], [[0.0, 0.046511627906976744, 0.9534883720930233]], [[0.0, 0.5, 0.5]], [[0.0, 0.0, 1.0]], [[0.0, 1.0, 0.0]], [[0.0, 0.0, 1.0]]]}, {"children_left": [1, 2, -1, 4, -1, -1, 7, 8, -1, 10, -1, -1, -1], "children_right": [6, 3, -1, 5, -1, -1, 12, 9, -1, 11, -1, -1, -1], "feature": [0, 2, -2, 2, -2, -2, 3, 2, -2, 3, -2, -2, -2], "threshold": [5.549999952316284, 2.449999988079071, -2.0, 4.25, -2.0, -2.0, 1.699999988079071, 4.900000095367432, -2.0, 1.550000011920929, -2.0, -2.0, -2.0], "value": [[[0.3333333333333333, 0.275, 0.39166666666666666]], [[0.851063829787234, 0.1276595744680851, 0.02127659574468085]], [[1.0, 0.0, 0.0]], [[0.0, 0.8571428571428571, 0.14285714285714285]], [[0.0, 1.0, 0.0]], [[0.0, 0.0, 1.0]], [[0.0, 0.3698630136986301, 0.6301369863013698]], [[0.0, 0.9310344827586207, 0.06896551724137931]], [[0.0, 1.0, 0.0]], [[0.0, 0.5, 0.5]], [[0.0, 0.0, 1.0]], [[0.0, 1.0, 0.0]], [[0.0, 0.0, 1.0]]]}, {"children_left": [1, -1, 3, -1, 5, 6, -1, 8, -1, -1, -1], "children_right": [2, -1, 4, -1, 10, 7, -1, 9, -1, -1, -1], "feature": [3, -2, 3, -2, 2, 3, -2, 0, -2, -2, -2], "threshold": [0.75, -2.0, 1.550000011920929, -2.0, 4.8500001430511475, 1.699999988079071, -2.0, 6.049999952316284, -2.0, -2.0, -2.0], "value": [[[0.3333333333333333, 0.3333333333333333, 0.3333333333333333]], [[1.0, 0.0, 0.0]], [[0.0, 0.5, 0.5]], [[0.0, 1.0, 0.0]], [[0.0, 0.1111111111111111, 0.8888888888888888]], [[0.0, 0.5555555555555556, 0.4444444444444444]], [[0.0, 1.0, 0.0]], [[0.0, 0.5, 0.5]], [[0.0, 1.0, 0.0]], [[0.0, 0.0, 1.0]], [[0.0, 0.0, 1.0]]]}, {"children_left": [1, -1, 3, 4, -1, 6, 7, -1, -1, -1, 11, -1, -1], "children_right": [2, -1, 10, 5, -1, 9, 8, -1, -1, -1, 12, -1, -1], "feature": [3, -2, 2, 3, -2, 0, 1, -2, -2, -2, 3, -2, -2], "threshold": [0.75, -2.0, 4.8500001430511475, 1.6500000357627869, -2.0, 6.049999952316284, 2.850000023841858, -2.0, -2.0, -2.0, 1.550000011920929, -2.0, -2.0], "value": [[[0.3416666666666667, 0.38333333333333336, 0.275]], [[1.0, 0.0, 0.0]], [[0.0, 0.5822784810126582, 0.4177215189873418]], [[0.0, 0.9347826086956522, 0.06521739130434782]], [[0.0, 1.0, 0.0]], [[0.0, 0.4, 0.6]], [[0.0, 0.6666666666666666, 0.3333333333333333]], [[0.0, 0.0, 1.0]], [[0.0, 1.0, 0.0]], [[0.0, 0.0, 1.0]], [[0.0, 0.09090909090909091, 0.9090909090909091]], [[0.0, 1.0, 0.0]], [[0.0, 0.0, 1.0]]]}, {"children_left": [1, 2, -1, -1, 5, 6, -1, -1, 9, 10, -1, -1, -1], "children_right": [4, 3, -1, -1, 8, 7, -1, -1, 12, 11, -1, -1, -1], "feature": [2, 2, -2, -2, 2, 3, -2, -2, 3, 3, -2, -2, -2], "threshold": [4.8500001430511475, 2.449999988079071, -2.0, -2.0, 4.950000047683716, 1.75, -2.0, -2.0, 1.699999988079071, 1.550000011920929, -2.0, -2.0, -2.0], "value": [[[0.2833333333333333, 0.3416666666666667, 0.375]], [[0.4722222222222222, 0.5277777777777778, 0.0]], [[1.0, 0.0, 0.0]], [[0.0, 1.0, 0.0]], [[0.0, 0.0625, 0.9375]], [[0.0, 0.5, 0.5]], [[0.0, 1.0, 0.0]], [[0.0, 0.0, 1.0]], [[0.0, 0.022727272727272728, 0.9772727272727273]], [[0.0, 0.5, 0.5]], [[0.0, 0.0, 1.0]], [[0.0, 1.0, 0.0]], [[0.0, 0.0, 1.0]]]}, {"children_left": [1, -1, 3, 4, 5, -1, -1, 8, 9, -1, -1, -1, 13, -1, -1], "children_right": [2, -1, 12, 7, 6, -1, -1, 11, 10, -1, -1, -1, 14, -1, -1], "feature": [2, -2, 0, 2, 0, -2, -2, 3, 3, -2, -2, -2, 2, -2, -2], "threshold": [2.449999988079071, -2.0, 6.3500001430511475, 4.75, 5.0, -2.0, -2.0, 1.699999988079071, 1.550000011920929, -2.0, -2.0, -2.0, 4.849999904632568, -2.0, -2.0], "value": [[[0.2916666666666667, 0.39166666666666666, 0.31666666666666665]], [[1.0, 0.0, 0.0]], [[0.0, 0.5529411764705883, 0.4470588235294118]], [[0.0, 0.7213114754098361, 0.2786885245901639]], [[0.0, 0.9555555555555556, 0.044444444444444446]], [[0.0, 0.0, 1.0]], [[0.0, 1.0, 0.0]], [[0.0, 0.0625, 0.9375]], [[0.0, 0.2, 0.8]], [[0.0, 0.0, 1.0]], [[0.0, 1.0, 0.0]], [[0.0, 0.0, 1.0]], [[0.0, 0.125, 0.875]], [[0.0, 1.0, 0.0]], [[0.0, 0.0, 1.0]]]}, {"children_left": [1, 2, -1, -1, 5, 6, 7, 8, 9, -1, -1, -1, -1, -1, -1], "children_right": [4, 3, -1, -1, 14, 13, 12, 11, 10, -1, -1, -1, -1, -1, -1], "feature": [3, 3, -2, -2, 3, 1, 0, 3, 0, -2, -2, -2, -2, -2, -2], "threshold": [1.449999988079071, 0.800000011920929, -2.0, -2.0, 1.6500000357627869, 3.049999952316284, 6.25, 1.550000011920929, 6.099999904632568, -2.0, -2.0, -2.0, -2.0, -2.0, -2.0], "value": [[[0.26666666666666666, 0.3416666666666667, 0.39166666666666666]], [[0.45714285714285713, 0.5428571428571428, 0.0]], [[1.0, 0.0, 0.0]], [[0.0, 1.0, 0.0]], [[0.0, 0.06, 0.94]], [[0.0, 0.2727272727272727, 0.7272727272727273]], [[0.0, 0.2, 0.8]], [[0.0, 0.5, 0.5]], [[0.0, 0.3333333333333333, 0.6666666666666666]], [[0.0, 0.0, 1.0]], [[0.0, 1.0, 0.0]], [[0.0, 1.0, 0.0]], [[0.0, 0.0, 1.0]], [[0.0, 1.0, 0.0]], [[0.0, 0.0, 1.0]]]}, {"children_left": [1, 2, -1, 4, -1, -1, 7, 8, -1, 10, -1, 12, -1, -1, 15, 16, -1, -1, -1], "children_right": [6, 3, -1, 5, -1, -1, 14, 9, -1, 11, -1, 13, -1, -1, 18, 17, -1, -1, -1], "feature": [0, 2, -2, 2, -2, -2, 2, 3, -2, 3, -2, 0, -2, -2, 0, 0, -2, -2, -2], "threshold": [5.450000047683716, 2.900000035762787, -2.0, 4.200000047683716, -2.0, -2.0, 4.8500001430511475, 0.7000000029802322, -2.0, 1.699999988079071, -2.0, 6.049999952316284, -2.0, -2.0, 6.150000095367432, 5.950000047683716, -2.0, -2.0, -2.0], "value": [[[0.375, 0.26666666666666666, 0.35833333333333334]], [[0.9512195121951219, 0.024390243902439025, 0.024390243902439025]], [[1.0, 0.0, 0.0]], [[0.0, 0.5, 0.5]], [[0.0, 1.0, 0.0]], [[0.0, 0.0, 1.0]], [[0.0759493670886076, 0.3924050632911392, 0.5316455696202531]], [[0.15789473684210525, 0.7894736842105263, 0.05263157894736842]], [[1.0, 0.0, 0.0]], [[0.0, 0.9375, 0.0625]], [[0.0, 1.0, 0.0]], [[0.0, 0.3333333333333333, 0.6666666666666666]], [[0.0, 1.0, 0.0]], [[0.0, 0.0, 1.0]], [[0.0, 0.024390243902439025, 0.975609756097561]], [[0.0, 0.2, 0.8]], [[0.0, 0.0, 1.0]], [[0.0, 1.0, 0.0]], [[0.0, 0.0, 1.0]]]}, {"children_left": [1, -1, 3, 4, -1, 6, -1, 8, -1, -1, 11, 12, 13, 14, -1, -1, -1, -1, -1], "children_right": [2, -1, 10, 5, -1, 7, -1, 9, -1, -1, 18, 17, 16, 15, -1, -1, -1, -1, -1], "feature": [2, -2, 2, 2, -2, 0, -2, 0, -2, -2, 1, 3, 0, 2, -2, -2, -2, -2, -2], "threshold": [2.300000011920929, -2.0, 4.8500001430511475, 4.75, -2.0, 6.049999952316284, -2.0, 6.5, -2.0, -2.0, 2.75, 1.699999988079071, 6.150000095367432, 5.049999952316284, -2.0, -2.0, -2.0, -2.0, -2.0], "value": [[[0.31666666666666665, 0.3416666666666667, 0.3416666666666667]], [[1.0, 0.0, 0.0]], [[0.0, 0.5, 0.5]], [[0.0, 0.9512195121951219, 0.04878048780487805]], [[0.0, 1.0, 0.0]], [[0.0, 0.6, 0.4]], [[0.0, 1.0, 0.0]], [[0.0, 0.3333333333333333, 0.6666666666666666]], [[0.0, 0.0, 1.0]], [[0.0, 1.0, 0.0]], [[0.0, 0.04878048780487805, 0.9512195121951219]], [[0.0, 0.13333333333333333, 0.8666666666666667]], [[0.0, 0.6666666666666666, 0.3333333333333333]], [[0.0, 0.5, 0.5]], [[0.0, 0.0, 1.0]], [[0.0, 1.0, 0.0]], [[0.0, 1.0, 0.0]], [[0.0, 0.0, 1.0]], [[0.0, 0.0, 1.0]]]}, {"children_left": [1, 2, -1, -1, 5, 6, -1, 8, -1, 10, -1, -1, -1], "children_right": [4, 3, -1, -1, 12, 7, -1, 9, -1, 11, -1, -1, -1], "feature": [2, 2, -2, -2, 3, 1, -2, 0, -2, 1, -2, -2, -2], "threshold": [4.8500001430511475, 2.449999988079071, -2.0, -2.0, 1.699999988079071, 2.75, -2.0, 6.6000001430511475, -2.0, 3.049999952316284, -2.0, -2.0, -2.0], "value": [[[0.325, 0.275, 0.4]], [[0.5571428571428572, 0.44285714285714284, 0.0]], [[1.0, 0.0, 0.0]], [[0.0, 1.0, 0.0]], [[0.0, 0.04, 0.96]], [[0.0, 0.4, 0.6]], [[0.0, 1.0, 0.0]], [[0.0, 0.25, 0.75]], [[0.0, 0.0, 1.0]], [[0.0, 0.5, 0.5]], [[0.0, 0.0, 1.0]], [[0.0, 1.0, 0.0]], [[0.0, 0.0, 1.0]]]}, {"children_left": [1, -1, 3, 4, -1, 6, -1, -1, 9, 10, -1, -1, -1], "children_right": [2, -1, 8, 5, -1, 7, -1, -1, 12, 11, -1, -1, -1], "feature": [3, -2, 3, 0, -2, 2, -2, -2, 2, 1, -2, -2, -2], "threshold": [0.7000000029802322, -2.0, 1.550000011920929, 6.25, -2.0, 5.0, -2.0, -2.0, 4.900000095367432, 3.0, -2.0, -2.0, -2.0], "value": [[[0.2916666666666667, 0.39166666666666666, 0.31666666666666665]], [[1.0, 0.0, 0.0]], [[0.0, 0.5529411764705883, 0.4470588235294118]], [[0.0, 0.9777777777777777, 0.022222222222222223]], [[0.0, 1.0, 0.0]], [[0.0, 0.8571428571428571, 0.14285714285714285]], [[0.0, 1.0, 0.0]], [[0.0, 0.0, 1.0]], [[0.0, 0.075, 0.925]], [[0.0, 0.5, 0.5]], [[0.0, 0.0, 1.0]], [[0.0, 1.0, 0.0]], [[0.0, 0.0, 1.0]]]}, {"children_left": [1, -1, 3, -1, 5, 6, -1, 8, -1, -1, -1], "children_right": [2, -1, 4, -1, 10, 7, -1, 9, -1, -1, -1], "feature": [3, -2, 2, -2, 3, 1, -2, 2, -2, -2, -2], "threshold": [0.7000000029802322, -2.0, 4.75, -2.0, 1.649999976158142, 2.350000023841858, -2.0, 5.0, -2.0, -2.0, -2.0], "value": [[[0.375, 0.2916666666666667, 0.3333333333333333]], [[1.0, 0.0, 0.0]], [[0.0, 0.4666666666666667, 0.5333333333333333]], [[0.0, 1.0, 0.0]], [[0.0, 0.047619047619047616, 0.9523809523809523]], [[0.0, 0.5, 0.5]], [[0.0, 0.0, 1.0]], [[0.0, 0.6666666666666666, 0.3333333333333333]], [[0.0, 1.0, 0.0]], [[0.0, 0.0, 1.0]], [[0.0, 0.0, 1.0]]]}, {"children_left": [1, -1, 3, 4, -1, 6, 7, 8, -1, -1, 11, 12, -1, 14, -1, -1, -1, -1, -1], "children_right": [2, -1, 18, 5, -1, 17, 10, 9, -1, -1, 16, 13, -1, 15, -1, -1, -1, -1, -1], "feature": [3, -2, 3, 3, -2, 0, 1, 0, -2, -2, 1, 1, -2, 2, -2, -2, -2, -2, -2], "threshold": [0.75, -2.0, 1.6500000357627869, 1.449999988079071, -2.0, 7.049999952316284, 2.350000023841858, 6.099999904632568, -2.0, -2.0, 2.899999976158142, 2.75, -2.0, 4.849999904632568, -2.0, -2.0, -2.0, -2.0, -2.0], "value": [[[0.3, 0.38333333333333336, 0.31666666666666665]], [[1.0, 0.0, 0.0]], [[0.0, 0.5476190476190477, 0.4523809523809524]], [[0.0, 0.92, 0.08]], [[0.0, 1.0, 0.0]], [[0.0, 0.7142857142857143, 0.2857142857142857]], [[0.0, 0.7692307692307693, 0.23076923076923078]], [[0.0, 0.3333333333333333, 0.6666666666666666]], [[0.0, 0.0, 1.0]], [[0.0, 1.0, 0.0]], [[0.0, 0.9, 0.1]], [[0.0, 0.8, 0.2]], [[0.0, 1.0, 0.0]], [[0.0, 0.5, 0.5]], [[0.0, 1.0, 0.0]], [[0.0, 0.0, 1.0]], [[0.0, 1.0, 0.0]], [[0.0, 0.0, 1.0]], [[0.0, 0.0, 1.0]]]}, {"children_left": [1, -1, 3, 4, 5, -1, -1, 8, -1, 10, 11, -1, -1, -1, -1], "children_right": [2, -1, 14, 7, 6, -1, -1, 9, -1, 13, 12, -1, -1, -1, -1], "feature": [2, -2, 3, 1, 2, -2, -2, 0, -2, 1, 1, -2, -2, -2, -2], "threshold": [2.699999988079071, -2.0, 1.6500000357627869, 2.25, 4.5, -2.0, -2.0, 6.200000047683716, -2.0, 2.850000023841858, 2.649999976158142, -2.0, -2.0, -2.0, -2.0], "value": [[[0.36666666666666664, 0.325, 0.30833333333333335]], [[1.0, 0.0, 0.0]], [[0.0, 0.5131578947368421, 0.4868421052631579]], [[0.0, 0.9512195121951219, 0.04878048780487805]], [[0.0, 0.5, 0.5]], [[0.0, 1.0, 0.0]], [[0.0, 0.0, 1.0]], [[0.0, 0.9743589743589743, 0.02564102564102564]], [[0.0, 1.0, 0.0]], [[0.0, 0.9166666666666666, 0.08333333333333333]], [[0.0, 0.75, 0.25]], [[0.0, 1.0, 0.0]], [[0.0, 0.0, 1.0]], [[0.0, 1.0, 0.0]], [[0.0, 0.0, 1.0]]]}, {"children_left": [1, 2, -1, 4, -1, -1, 7, 8, 9, -1, -1, -1, 13, 14, -1, -1, -1], "children_right": [6, 3, -1, 5, -1, -1, 12, 11, 10, -1, -1, -1, 16, 15, -1, -1, -1], "feature": [0, 3, -2, 0, -2, -2, 0, 3, 2, -2, -2, -2, 2, 3, -2, -2, -2], "threshold": [5.400000095367432, 0.800000011920929, -2.0, 4.950000047683716, -2.0, -2.0, 6.25, 1.8499999642372131, 2.549999952316284, -2.0, -2.0, -2.0, 5.0, 1.649999976158142, -2.0, -2.0, -2.0], "value": [[[0.275, 0.425, 0.3]], [[0.8333333333333334, 0.1111111111111111, 0.05555555555555555]], [[1.0, 0.0, 0.0]], [[0.0, 0.6666666666666666, 0.3333333333333333]], [[0.0, 0.0, 1.0]], [[0.0, 1.0, 0.0]], [[0.03571428571428571, 0.5595238095238095, 0.40476190476190477]], [[0.06666666666666667, 0.7777777777777778, 0.15555555555555556]], [[0.07894736842105263, 0.9210526315789473, 0.0]], [[1.0, 0.0, 0.0]], [[0.0, 1.0, 0.0]], [[0.0, 0.0, 1.0]], [[0.0, 0.3076923076923077, 0.6923076923076923]], [[0.0, 0.8571428571428571, 0.14285714285714285]], [[0.0, 1.0, 0.0]], [[0.0, 0.0, 1.0]], [[0.0, 0.0, 1.0]]]}, {"children_left": [1, 2, -1, 4, -1, -1, 7, 8, 9, -1, -1, 12, 13, -1, -1, -1, 17, 18, -1, -1, -1], "children_right": [6, 3, -1, 5, -1, -1, 16, 11, 10, -1, -1, 15, 14, -1, -1, -1, 20, 19, -1, -1, -1], "feature": [0, 3, -2, 0, -2, -2, 3, 2, 2, -2, -2, 0, 3, -2, -2, -2, 3, 2, -2, -2, -2], "threshold": [5.450000047683716, 0.75, -2.0, 4.950000047683716, -2.0, -2.0, 1.699999988079071, 4.950000047683716, 2.5, -2.0, -2.0, 6.150000095367432, 1.550000011920929, -2.0, -2.0, -2.0, 1.8499999642372131, 4.8500001430511475, -2.0, -2.0, -2.0], "value": [[[0.21666666666666667, 0.375, 0.4083333333333333]], [[0.8333333333333334, 0.1, 0.06666666666666667]], [[1.0, 0.0, 0.0]], [[0.0, 0.6, 0.4]], [[0.0, 0.0, 1.0]], [[0.0, 1.0, 0.0]], [[0.011111111111111112, 0.4666666666666667, 0.5222222222222223]], [[0.02127659574468085, 0.851063829787234, 0.1276595744680851]], [[0.02564102564102564, 0.9743589743589743, 0.0]], [[1.0, 0.0, 0.0]], [[0.0, 1.0, 0.0]], [[0.0, 0.25, 0.75]], [[0.0, 0.5, 0.5]], [[0.0, 0.0, 1.0]], [[0.0, 1.0, 0.0]], [[0.0, 0.0, 1.0]], [[0.0, 0.046511627906976744, 0.9534883720930233]], [[0.0, 0.18181818181818182, 0.8181818181818182]], [[0.0, 1.0, 0.0]], [[0.0, 0.0, 1.0]], [[0.0, 0.0, 1.0]]]}, {"children_left": [1, -1, 3, 4, -1, -1, 7, 8, -1, 10, 11, -1, -1, -1, -1], "children_right": [2, -1, 6, 5, -1, -1, 14, 9, -1, 13, 12, -1, -1, -1, -1], "feature": [2, -2, 2, 3, -2, -2, 1, 0, -2, 3, 1, -2, -2, -2, -2], "threshold": [2.300000011920929, -2.0, 4.8500001430511475, 1.699999988079071, -2.0, -2.0, 2.75, 5.900000095367432, -2.0, 1.699999988079071, 2.350000023841858, -2.0, -2.0, -2.0, -2.0], "value": [[[0.26666666666666666, 0.43333333333333335, 0.3]], [[1.0, 0.0, 0.0]], [[0.0, 0.5909090909090909, 0.4090909090909091]], [[0.0, 0.9803921568627451, 0.0196078431372549]], [[0.0, 1.0, 0.0]], [[0.0, 0.0, 1.0]], [[0.0, 0.05405405405405406, 0.9459459459459459]], [[0.0, 0.2857142857142857, 0.7142857142857143]], [[0.0, 0.0, 1.0]], [[0.0, 0.4, 0.6]], [[0.0, 0.6666666666666666, 0.3333333333333333]], [[0.0, 0.0, 1.0]], [[0.0, 1.0, 0.0]], [[0.0, 0.0, 1.0]], [[0.0, 0.0, 1.0]]]}, {"children_left": [1, -1, 3, 4, -1, 6, -1, -1, -1], "children_right": [2, -1, 8, 5, -1, 7, -1, -1, -1], "feature": [2, -2, 3, 2, -2, 1, -2, -2, -2], "threshold": [2.449999988079071, -2.0, 1.6500000357627869, 5.0, -2.0, 2.75, -2.0, -2.0, -2.0], "value": [[[0.30833333333333335, 0.3333333333333333, 0.35833333333333334]], [[1.0, 0.0, 0.0]], [[0.0, 0.4819277108433735, 0.5180722891566265]], [[0.0, 0.9302325581395349, 0.06976744186046512]], [[0.0, 1.0, 0.0]], [[0.0, 0.25, 0.75]], [[0.0, 1.0, 0.0]], [[0.0, 0.0, 1.0]], [[0.0, 0.0, 1.0]]]}, {"children_left": [1, 2, -1, 4, -1, -1, 7, 8, -1, 10, 11, -1, -1, 14, -1, -1, 17, 18, 19, 20, -1, -1, -1, -1, -1], "children_right": [6, 3, -1, 5, -1, -1, 16, 9, -1, 13, 12, -1, -1, 15, -1, -1, 24, 23, 22, 21, -1, -1, -1, -1, -1], "feature": [0, 2, -2, 3, -2, -2, 0, 3, -2, 1, 2, -2, -2, 0, -2, -2, 1, 3, 0, 1, -2, -2, -2, -2, -2], "threshold": [5.450000047683716, 2.699999988079071, -2.0, 1.550000011920929, -2.0, -2.0, 6.25, 0.7000000029802322, -2.0, 3.200000047683716, 4.849999904632568, -2.0, -2.0, 6.099999904632568, -2.0, -2.0, 3.149999976158142, 1.649999976158142, 6.3500001430511475, 2.549999952316284, -2.0, -2.0, -2.0, -2.0, -2.0], "value": [[[0.425, 0.35833333333333334, 0.21666666666666667]], [[0.9038461538461539, 0.07692307692307693, 0.019230769230769232]], [[1.0, 0.0, 0.0]], [[0.0, 0.8, 0.2]], [[0.0, 1.0, 0.0]], [[0.0, 0.0, 1.0]], [[0.058823529411764705, 0.5735294117647058, 0.36764705882352944]], [[0.09523809523809523, 0.7857142857142857, 0.11904761904761904]], [[1.0, 0.0, 0.0]], [[0.0, 0.868421052631579, 0.13157894736842105]], [[0.0, 0.9142857142857143, 0.08571428571428572]], [[0.0, 1.0, 0.0]], [[0.0, 0.0, 1.0]], [[0.0, 0.3333333333333333, 0.6666666666666666]], [[0.0, 1.0, 0.0]], [[0.0, 0.0, 1.0]], [[0.0, 0.23076923076923078, 0.7692307692307693]], [[0.0, 0.4, 0.6]], [[0.0, 0.8571428571428571, 0.14285714285714285]], [[0.0, 0.5, 0.5]], [[0.0, 1.0, 0.0]], [[0.0, 0.0, 1.0]], [[0.0, 1.0, 0.0]], [[0.0, 0.0, 1.0]], [[0.0, 0.0, 1.0]]]}, {"children_left": [1, -1, 3, 4, -1, -1, 7, 8, -1, -1, -1], "children_right": [2, -1, 6, 5, -1, -1, 10, 9, -1, -1, -1], "feature": [2, -2, 3, 2, -2, -2, 2, 1, -2, -2, -2], "threshold": [2.449999988079071, -2.0, 1.550000011920929, 4.950000047683716, -2.0, -2.0, 4.8500001430511475, 3.0, -2.0, -2.0, -2.0], "value": [[[0.3416666666666667, 0.35833333333333334, 0.3]], [[1.0, 0.0, 0.0]], [[0.0, 0.5443037974683544, 0.45569620253164556]], [[0.0, 0.95, 0.05]], [[0.0, 1.0, 0.0]], [[0.0, 0.0, 1.0]], [[0.0, 0.1282051282051282, 0.8717948717948718]], [[0.0, 0.625, 0.375]], [[0.0, 0.0, 1.0]], [[0.0, 1.0, 0.0]], [[0.0, 0.0, 1.0]]]}, {"children_left": [1, -1, 3, 4, 5, -1, -1, 8, -1, -1, 11, 12, -1, 14, -1, -1, -1], "children_right": [2, -1, 10, 7, 6, -1, -1, 9, -1, -1, 16, 13, -1, 15, -1, -1, -1], "feature": [3, -2, 3, 3, 2, -2, -2, 2, -2, -2, 2, 0, -2, 0, -2, -2, -2], "threshold": [0.75, -2.0, 1.6500000357627869, 1.550000011920929, 4.950000047683716, -2.0, -2.0, 5.450000047683716, -2.0, -2.0, 4.900000095367432, 5.400000095367432, -2.0, 6.049999952316284, -2.0, -2.0, -2.0], "value": [[[0.3333333333333333, 0.36666666666666664, 0.3]], [[1.0, 0.0, 0.0]], [[0.0, 0.55, 0.45]], [[0.0, 0.9555555555555556, 0.044444444444444446]], [[0.0, 0.975, 0.025]], [[0.0, 1.0, 0.0]], [[0.0, 0.0, 1.0]], [[0.0, 0.8, 0.2]], [[0.0, 1.0, 0.0]], [[0.0, 0.0, 1.0]], [[0.0, 0.02857142857142857, 0.9714285714285714]], [[0.0, 0.3333333333333333, 0.6666666666666666]], [[0.0, 0.0, 1.0]], [[0.0, 0.5, 0.5]], [[0.0, 1.0, 0.0]], [[0.0, 0.0, 1.0]], [[0.0, 0.0, 1.0]]]}, {"children_left": [1, -1, 3, 4, -1, -1, 7, 8, -1, 10, -1, -1, -1], "children_right": [2, -1, 6, 5, -1, -1, 12, 9, -1, 11, -1, -1, -1], "feature": [2, -2, 3, 0, -2, -2, 2, 3, -2, 1, -2, -2, -2], "threshold": [2.449999988079071, -2.0, 1.6500000357627869, 7.049999952316284, -2.0, -2.0, 4.8500001430511475, 1.75, -2.0, 3.0, -2.0, -2.0, -2.0], "value": [[[0.2833333333333333, 0.35, 0.36666666666666664]], [[1.0, 0.0, 0.0]], [[0.0, 0.4883720930232558, 0.5116279069767442]], [[0.0, 0.975, 0.025]], [[0.0, 1.0, 0.0]], [[0.0, 0.0, 1.0]], [[0.0, 0.06521739130434782, 0.9347826086956522]], [[0.0, 0.375, 0.625]], [[0.0, 0.0, 1.0]], [[0.0, 0.5, 0.5]], [[0.0, 0.0, 1.0]], [[0.0, 1.0, 0.0]], [[0.0, 0.0, 1.0]]]}], "target_names": ["setosa", "versicolor", "virginica"], "feature_names": ["sepal length (cm)", "sepal width (cm)", "petal length (cm)", "petal width (cm)"]}